SVM-light Version V6.02
0 # kernel type
3 # kernel parameter -d 
1 # kernel parameter -g 
1 # kernel parameter -s 
1 # kernel parameter -r 
empty# kernel parameter -u 
1947 # highest feature index 
3363 # number of training documents 
868 # number of support vectors plus 1 
1.161841 # threshold b, each following line is a SV (starting with alpha*y)
-0.0057535355174050742399494140499883 1:1 3:1 4:1 5:1 6:1 7:1 8:1 9:1 11:1 12:1 13:1 14:1 15:1 16:1 18:1 19:1 20:1 21:1 22:1 23:1 24:1 #
0.0062518958655983399019806512342257 1:1 2:1 3:1 4:1 5:1 6:1 7:1 8:1 11:1 14:1 18:1 19:1 20:1 21:1 24:1 49:1 55:1 92:1 144:1 153:1 245:1 #
0.028423098123416173921285121650726 1:1 4:1 5:1 6:1 7:1 8:1 9:1 11:1 14:1 17:1 18:1 19:1 20:1 21:1 22:1 27:1 83:1 126:1 975:1 1228:1 1229:1 #
-0.035541226326943814450842751284654 1:1 3:1 4:1 5:1 6:1 7:1 8:1 9:1 11:1 14:1 18:1 19:1 20:1 21:1 22:1 24:1 25:1 27:1 36:1 37:1 38:1 39:1 #
0.019260607486998274073819459317747 1:1 4:1 5:1 6:1 7:1 8:1 9:1 11:1 14:1 17:1 18:1 19:1 20:1 21:1 22:1 27:1 62:1 92:1 126:1 188:1 266:1 267:1 268:1 #
0.038446559096442144143335184480748 1:1 2:1 3:1 4:1 5:1 6:1 7:1 8:1 9:1 11:1 14:1 18:1 19:1 20:1 21:1 49:1 55:1 102:1 324:1 927:1 #
0.046863830964287707392390558425177 1:1 2:1 3:1 4:1 5:1 6:1 7:1 8:1 9:1 11:1 15:1 16:1 17:1 18:1 19:1 20:1 21:1 26:1 34:1 35:1 #
0.046863830964287707392390558425177 1:1 3:1 4:1 5:1 6:1 7:1 8:1 9:1 11:1 16:1 18:1 19:1 20:1 21:1 22:1 27:1 42:1 43:1 44:1 45:1 46:1 #
0.0053928935009745770923217378367553 1:1 2:1 3:1 4:1 5:1 6:1 7:1 8:1 9:1 10:1 11:1 12:1 13:1 14:1 15:1 18:1 19:1 20:1 21:1 24:1 62:1 #
0.046863830964287707392390558425177 1:1 2:1 3:1 4:1 5:1 6:1 7:1 8:1 9:1 11:1 18:1 19:1 20:1 21:1 45:1 229:1 301:1 326:1 562:1 1048:1 1217:1 #
-0.043323774098620572436946218886078 1:1 3:1 4:1 5:1 6:1 7:1 8:1 9:1 11:1 13:1 18:1 19:1 20:1 21:1 22:1 45:1 50:1 62:1 66:1 102:1 174:1 309:1 405:1 1300:1 #
-0.0093857445144749085397251064932789 1:1 4:1 5:1 6:1 7:1 8:1 11:1 15:1 18:1 19:1 20:1 22:1 24:1 26:1 125:1 126:1 153:1 173:1 186:1 682:1 1084:1 1127:1 #
0.03200881090827240732510361453933 1:1 2:1 3:1 4:1 5:1 6:1 7:1 8:1 9:1 13:1 14:1 18:1 19:1 20:1 21:1 27:1 102:1 137:1 202:1 #
-0.046863830964287707392390558425177 1:1 2:1 3:1 4:1 5:1 7:1 8:1 9:1 11:1 12:1 13:1 14:1 18:1 19:1 20:1 21:1 55:1 62:1 69:1 84:1 174:1 182:1 1693:1 #
0.046863830964287707392390558425177 1:1 3:1 4:1 5:1 6:1 7:1 8:1 9:1 11:1 14:1 18:1 19:1 20:1 21:1 22:1 24:1 27:1 37:1 38:1 566:1 1215:1 #
0.046863830964287707392390558425177 1:1 3:1 4:1 5:1 6:1 7:1 8:1 9:1 11:1 18:1 19:1 20:1 21:1 22:1 26:1 27:1 29:1 38:1 102:1 309:1 1645:1 #
0.046863830964287707392390558425177 1:1 4:1 5:1 6:1 7:1 8:1 9:1 11:1 18:1 19:1 20:1 21:1 22:1 24:1 26:1 27:1 28:1 126:1 774:1 786:1 787:1 #
0.046863830964287707392390558425177 1:1 3:1 4:1 5:1 6:1 7:1 8:1 9:1 11:1 17:1 18:1 19:1 20:1 21:1 22:1 26:1 27:1 29:1 30:1 101:1 174:1 1567:1 #
0.046863830964287707392390558425177 1:1 3:1 4:1 5:1 6:1 7:1 8:1 9:1 11:1 18:1 19:1 20:1 21:1 22:1 24:1 26:1 27:1 56:1 162:1 #
-0.046863830964287707392390558425177 1:1 4:1 5:1 6:1 7:1 8:1 9:1 11:1 16:1 18:1 19:1 20:1 21:1 22:1 24:1 26:1 27:1 38:1 109:1 126:1 309:1 774:1 888:1 1382:1 #
-0.046863830964287707392390558425177 1:1 4:1 5:1 6:1 7:1 8:1 9:1 11:1 18:1 19:1 20:1 21:1 22:1 26:1 27:1 62:1 101:1 102:1 126:1 144:1 174:1 289:1 290:1 396:1 #
-0.046863830964287707392390558425177 1:1 4:1 5:1 6:1 7:1 8:1 9:1 18:1 19:1 20:1 21:1 22:1 26:1 27:1 102:1 126:1 137:1 213:1 233:1 234:1 235:1 #
-0.046863830964287707392390558425177 1:1 4:1 5:1 6:1 7:1 8:1 9:1 11:1 18:1 19:1 20:1 21:1 22:1 26:1 27:1 102:1 126:1 138:1 234:1 235:1 501:1 #
-0.046863830964287707392390558425177 1:1 4:1 5:1 6:1 7:1 8:1 9:1 11:1 18:1 19:1 20:1 21:1 22:1 26:1 27:1 102:1 126:1 138:1 177:1 234:1 508:1 509:1 #
0.046863830964287707392390558425177 1:1 2:1 3:1 4:1 5:1 7:1 8:1 9:1 11:1 14:1 17:1 18:1 19:1 20:1 21:1 44:1 48:1 55:1 69:1 365:1 #
0.046863830964287707392390558425177 1:1 2:1 3:1 4:1 5:1 7:1 8:1 9:1 11:1 14:1 18:1 19:1 20:1 21:1 44:1 48:1 55:1 69:1 102:1 365:1 #
0.046863830964287707392390558425177 1:1 2:1 3:1 4:1 5:1 7:1 8:1 9:1 11:1 14:1 18:1 19:1 20:1 21:1 24:1 43:1 48:1 49:1 50:1 69:1 186:1 381:1 1362:1 #
0.046863830964287707392390558425177 1:1 2:1 3:1 4:1 5:1 6:1 7:1 8:1 9:1 11:1 14:1 17:1 18:1 19:1 20:1 21:1 43:1 55:1 186:1 365:1 #
0.016979257217231057131012761374222 1:1 2:1 3:1 4:1 5:1 7:1 8:1 9:1 11:1 14:1 18:1 19:1 20:1 21:1 24:1 44:1 48:1 55:1 69:1 763:1 #
-0.046863830964287707392390558425177 1:1 2:1 3:1 4:1 5:1 7:1 8:1 9:1 11:1 14:1 18:1 19:1 20:1 21:1 24:1 55:1 69:1 77:1 150:1 640:1 #
-0.046863830964287707392390558425177 1:1 2:1 3:1 4:1 5:1 7:1 8:1 9:1 11:1 14:1 17:1 18:1 19:1 20:1 21:1 55:1 69:1 228:1 229:1 236:1 #
-0.046863830964287707392390558425177 1:1 2:1 3:1 4:1 5:1 7:1 8:1 9:1 11:1 14:1 15:1 18:1 19:1 20:1 24:1 44:1 48:1 49:1 56:1 69:1 125:1 365:1 #
-0.046863830964287707392390558425177 1:1 2:1 3:1 4:1 5:1 7:1 8:1 9:1 11:1 18:1 19:1 20:1 21:1 24:1 26:1 34:1 35:1 55:1 56:1 62:1 69:1 #
-0.046863830964287707392390558425177 1:1 2:1 3:1 4:1 5:1 6:1 7:1 8:1 9:1 11:1 14:1 17:1 18:1 19:1 20:1 21:1 43:1 55:1 186:1 365:1 #
0.046863830964287707392390558425177 1:1 4:1 5:1 6:1 7:1 8:1 9:1 11:1 14:1 18:1 19:1 20:1 21:1 22:1 27:1 62:1 102:1 126:1 138:1 229:1 233:1 234:1 235:1 #
0.046863830964287707392390558425177 1:1 4:1 5:1 6:1 7:1 8:1 9:1 14:1 18:1 19:1 20:1 21:1 22:1 27:1 102:1 126:1 137:1 177:1 211:1 234:1 235:1 501:1 #
0.046863830964287707392390558425177 1:1 4:1 5:1 6:1 7:1 8:1 9:1 11:1 18:1 19:1 20:1 21:1 22:1 26:1 27:1 62:1 102:1 126:1 144:1 174:1 479:1 480:1 481:1 #
0.046863830964287707392390558425177 1:1 4:1 5:1 6:1 7:1 8:1 9:1 11:1 18:1 19:1 20:1 21:1 22:1 26:1 27:1 102:1 126:1 235:1 289:1 932:1 #
0.046863830964287707392390558425177 1:1 4:1 5:1 6:1 7:1 8:1 9:1 11:1 17:1 18:1 19:1 20:1 21:1 22:1 26:1 27:1 126:1 213:1 234:1 237:1 508:1 509:1 #
-0.046863830964287707392390558425177 1:1 4:1 5:1 6:1 7:1 8:1 9:1 14:1 18:1 19:1 20:1 21:1 22:1 27:1 102:1 126:1 137:1 177:1 211:1 233:1 234:1 235:1 #
-0.046863830964287707392390558425177 1:1 4:1 5:1 6:1 7:1 8:1 9:1 14:1 18:1 19:1 20:1 21:1 22:1 27:1 102:1 126:1 137:1 211:1 234:1 235:1 501:1 #
-0.046863830964287707392390558425177 1:1 4:1 5:1 6:1 7:1 8:1 9:1 11:1 14:1 18:1 19:1 20:1 21:1 22:1 27:1 102:1 126:1 211:1 233:1 234:1 235:1 #
-0.046863830964287707392390558425177 1:1 4:1 5:1 6:1 7:1 8:1 9:1 11:1 18:1 19:1 20:1 21:1 22:1 26:1 27:1 102:1 126:1 233:1 234:1 235:1 #
0.046863830964287707392390558425177 1:1 2:1 3:1 4:1 5:1 7:1 8:1 9:1 11:1 18:1 19:1 20:1 21:1 24:1 26:1 55:1 56:1 62:1 69:1 77:1 174:1 640:1 #
0.046863830964287707392390558425177 1:1 2:1 3:1 4:1 5:1 7:1 8:1 9:1 11:1 18:1 19:1 20:1 21:1 26:1 55:1 62:1 69:1 174:1 177:1 228:1 236:1 858:1 #
0.046863830964287707392390558425177 1:1 2:1 3:1 4:1 5:1 7:1 9:1 11:1 15:1 18:1 19:1 20:1 21:1 26:1 69:1 77:1 189:1 190:1 191:1 192:1 #
0.046863830964287707392390558425177 1:1 2:1 3:1 4:1 5:1 7:1 8:1 9:1 11:1 18:1 19:1 20:1 21:1 24:1 26:1 55:1 69:1 77:1 144:1 1060:1 #
0.046863830964287707392390558425177 1:1 2:1 3:1 4:1 5:1 7:1 8:1 9:1 11:1 18:1 19:1 20:1 21:1 24:1 26:1 35:1 55:1 62:1 69:1 174:1 567:1 #
-0.046863830964287707392390558425177 1:1 2:1 3:1 4:1 5:1 7:1 8:1 9:1 11:1 17:1 18:1 19:1 20:1 21:1 26:1 35:1 55:1 69:1 174:1 1441:1 #
-0.046863830964287707392390558425177 1:1 2:1 3:1 4:1 5:1 7:1 8:1 9:1 11:1 17:1 18:1 19:1 20:1 21:1 26:1 55:1 69:1 77:1 245:1 #
-0.046863830964287707392390558425177 1:1 2:1 3:1 4:1 5:1 7:1 8:1 9:1 11:1 17:1 18:1 19:1 20:1 21:1 26:1 55:1 69:1 77:1 188:1 1509:1 #
0.044810846554037837841111269199246 1:1 4:1 5:1 6:1 7:1 8:1 9:1 11:1 14:1 16:1 18:1 19:1 20:1 21:1 22:1 27:1 102:1 126:1 267:1 324:1 899:1 900:1 #
0.035707106302186222834826878624881 1:1 4:1 5:1 6:1 7:1 8:1 9:1 11:1 14:1 18:1 19:1 20:1 21:1 22:1 27:1 102:1 126:1 177:1 230:1 231:1 321:1 322:1 323:1 324:1 #
0.046863830964287707392390558425177 1:1 4:1 5:1 6:1 7:1 8:1 9:1 11:1 14:1 18:1 19:1 20:1 21:1 22:1 27:1 83:1 102:1 126:1 975:1 1228:1 1229:1 #
0.0046517035084063171335166941844363 2:1 3:1 4:1 5:1 6:1 7:1 8:1 11:1 13:1 14:1 18:1 19:1 20:1 21:1 24:1 38:1 55:1 153:1 384:1 561:1 565:1 #
0.046863830964287707392390558425177 1:1 4:1 5:1 6:1 7:1 8:1 9:1 11:1 14:1 18:1 19:1 20:1 21:1 22:1 24:1 27:1 33:1 43:1 126:1 774:1 1355:1 1356:1 #
-0.046863830964287707392390558425177 1:1 3:1 4:1 5:1 6:1 7:1 8:1 9:1 11:1 18:1 19:1 20:1 21:1 22:1 24:1 27:1 45:1 62:1 92:1 623:1 1595:1 #
-0.046863830964287707392390558425177 1:1 3:1 4:1 5:1 6:1 7:1 8:1 9:1 11:1 18:1 19:1 20:1 21:1 22:1 24:1 27:1 45:1 62:1 92:1 623:1 1598:1 #
-0.046863830964287707392390558425177 1:1 3:1 4:1 5:1 6:1 7:1 8:1 9:1 11:1 18:1 19:1 20:1 21:1 22:1 24:1 27:1 45:1 62:1 92:1 623:1 1597:1 #
-0.010094923750878016452392493818024 1:1 4:1 5:1 6:1 7:1 8:1 9:1 11:1 17:1 20:1 21:1 22:1 26:1 27:1 28:1 53:1 126:1 219:1 393:1 975:1 1700:1 #
-0.036741930964081515043062609038316 1:1 3:1 4:1 5:1 6:1 7:1 8:1 9:1 11:1 18:1 20:1 21:1 22:1 24:1 27:1 43:1 44:1 45:1 219:1 251:1 953:1 #
0.046863830964287707392390558425177 1:1 2:1 3:1 4:1 5:1 7:1 8:1 9:1 18:1 19:1 20:1 21:1 26:1 55:1 56:1 62:1 69:1 77:1 102:1 137:1 1509:1 #
0.046863830964287707392390558425177 1:1 2:1 3:1 4:1 5:1 7:1 8:1 9:1 15:1 18:1 19:1 20:1 21:1 26:1 69:1 102:1 136:1 137:1 225:1 236:1 #
0.046863830964287707392390558425177 1:1 2:1 3:1 4:1 5:1 7:1 8:1 9:1 11:1 17:1 18:1 19:1 20:1 21:1 26:1 55:1 69:1 77:1 96:1 #
0.046863830964287707392390558425177 1:1 2:1 3:1 4:1 5:1 6:1 7:1 8:1 9:1 14:1 15:1 18:1 19:1 20:1 21:1 43:1 102:1 137:1 186:1 365:1 #
0.046863830964287707392390558425177 1:1 2:1 3:1 4:1 5:1 7:1 8:1 9:1 11:1 17:1 18:1 19:1 20:1 21:1 26:1 33:1 48:1 55:1 69:1 365:1 #
-0.046863830964287707392390558425177 1:1 2:1 3:1 4:1 5:1 7:1 8:1 9:1 15:1 18:1 19:1 20:1 21:1 26:1 48:1 69:1 102:1 137:1 186:1 365:1 #
-0.046863830964287707392390558425177 1:1 2:1 3:1 4:1 5:1 7:1 8:1 9:1 11:1 15:1 18:1 19:1 20:1 21:1 26:1 35:1 69:1 102:1 209:1 592:1 594:1 #
-0.046863830964287707392390558425177 1:1 2:1 3:1 4:1 5:1 7:1 8:1 9:1 11:1 17:1 18:1 19:1 20:1 21:1 26:1 55:1 69:1 77:1 188:1 1509:1 #
0.046863830964287707392390558425177 1:1 3:1 4:1 5:1 6:1 7:1 8:1 9:1 11:1 18:1 19:1 20:1 21:1 22:1 24:1 27:1 45:1 92:1 623:1 1511:1 #
0.046863830964287707392390558425177 1:1 3:1 4:1 5:1 6:1 7:1 8:1 9:1 11:1 18:1 19:1 20:1 21:1 22:1 24:1 27:1 45:1 92:1 240:1 623:1 1511:1 #
0.046863830964287707392390558425177 1:1 3:1 4:1 5:1 6:1 7:1 8:1 9:1 11:1 18:1 19:1 20:1 21:1 22:1 24:1 27:1 45:1 92:1 623:1 1594:1 #
0.042048551748063642263808503685141 1:1 2:1 3:1 4:1 5:1 6:1 7:1 8:1 9:1 11:1 18:1 19:1 20:1 21:1 24:1 26:1 27:1 32:1 339:1 616:1 #
0.046863830964287707392390558425177 1:1 3:1 4:1 5:1 6:1 7:1 8:1 9:1 11:1 18:1 19:1 20:1 21:1 22:1 24:1 27:1 43:1 45:1 62:1 116:1 118:1 264:1 833:1 #
-0.046863830964287707392390558425177 1:1 2:1 3:1 4:1 5:1 6:1 7:1 8:1 9:1 11:1 18:1 19:1 20:1 21:1 26:1 27:1 79:1 102:1 174:1 727:1 #
-0.021713711298680812844530407801358 1:1 3:1 4:1 5:1 6:1 7:1 8:1 9:1 11:1 14:1 18:1 19:1 20:1 21:1 22:1 24:1 55:1 237:1 326:1 327:1 345:1 1219:1 #
-0.046863830964287707392390558425177 1:1 2:1 3:1 4:1 5:1 6:1 7:1 8:1 9:1 11:1 18:1 19:1 20:1 21:1 26:1 27:1 29:1 30:1 102:1 174:1 358:1 #
-0.046863830964287707392390558425177 1:1 2:1 3:1 4:1 5:1 6:1 7:1 8:1 9:1 18:1 19:1 20:1 21:1 26:1 27:1 29:1 30:1 102:1 137:1 174:1 358:1 #
0.046863830964287707392390558425177 1:1 4:1 5:1 6:1 7:1 8:1 9:1 11:1 15:1 16:1 18:1 19:1 20:1 21:1 22:1 24:1 45:1 126:1 128:1 235:1 259:1 446:1 1053:1 #
0.046863830964287707392390558425177 1:1 3:1 4:1 5:1 6:1 7:1 8:1 9:1 11:1 18:1 19:1 20:1 21:1 22:1 24:1 36:1 45:1 55:1 77:1 109:1 150:1 1843:1 #
0.046863830964287707392390558425177 1:1 4:1 5:1 6:1 7:1 8:1 9:1 11:1 15:1 17:1 18:1 19:1 20:1 21:1 22:1 26:1 109:1 126:1 164:1 230:1 289:1 290:1 331:1 #
0.046863830964287707392390558425177 1:1 3:1 4:1 5:1 6:1 7:1 8:1 9:1 11:1 18:1 19:1 20:1 21:1 22:1 27:1 43:1 44:1 45:1 251:1 953:1 959:1 #
0.046863830964287707392390558425177 1:1 3:1 4:1 5:1 6:1 7:1 8:1 9:1 11:1 17:1 18:1 19:1 20:1 21:1 22:1 27:1 36:1 45:1 109:1 146:1 798:1 #
-0.046863830964287707392390558425177 1:1 3:1 4:1 5:1 6:1 7:1 8:1 9:1 11:1 18:1 19:1 20:1 21:1 22:1 24:1 33:1 43:1 45:1 48:1 51:1 55:1 386:1 389:1 #
-0.046863830964287707392390558425177 1:1 3:1 4:1 5:1 6:1 7:1 8:1 9:1 11:1 13:1 16:1 18:1 19:1 20:1 21:1 22:1 24:1 45:1 55:1 66:1 109:1 405:1 1286:1 #
-0.046863830964287707392390558425177 1:1 3:1 4:1 5:1 6:1 7:1 8:1 9:1 11:1 13:1 18:1 19:1 20:1 21:1 22:1 24:1 45:1 55:1 66:1 109:1 405:1 1271:1 #
-0.033960700462872216165433059131828 1:1 3:1 4:1 5:1 6:1 7:1 8:1 9:1 11:1 13:1 18:1 19:1 20:1 21:1 22:1 24:1 45:1 55:1 66:1 109:1 309:1 405:1 1349:1 #
-0.046863830964287707392390558425177 1:1 4:1 5:1 6:1 7:1 8:1 9:1 11:1 14:1 15:1 17:1 18:1 19:1 20:1 21:1 22:1 49:1 126:1 177:1 326:1 445:1 1427:1 1428:1 1429:1 #
0.046863830964287707392390558425177 1:1 2:1 3:1 4:1 5:1 6:1 7:1 8:1 9:1 11:1 18:1 19:1 20:1 21:1 26:1 27:1 29:1 30:1 62:1 102:1 174:1 358:1 #
0.046863830964287707392390558425177 1:1 2:1 3:1 4:1 5:1 6:1 7:1 8:1 9:1 18:1 19:1 20:1 21:1 26:1 27:1 29:1 30:1 102:1 137:1 358:1 #
0.046863830964287707392390558425177 1:1 2:1 3:1 4:1 5:1 6:1 7:1 8:1 9:1 11:1 18:1 19:1 20:1 21:1 26:1 27:1 29:1 30:1 102:1 358:1 #
0.046863830964287707392390558425177 1:1 2:1 3:1 4:1 5:1 6:1 7:1 8:1 9:1 11:1 12:1 13:1 18:1 19:1 20:1 21:1 66:1 102:1 301:1 358:1 405:1 465:1 #
-0.046863830964287707392390558425177 1:1 2:1 3:1 4:1 5:1 6:1 7:1 8:1 9:1 11:1 18:1 19:1 20:1 21:1 26:1 27:1 29:1 30:1 102:1 358:1 #
0.046863830964287707392390558425177 1:1 3:1 4:1 5:1 6:1 7:1 8:1 9:1 11:1 13:1 15:1 18:1 19:1 20:1 21:1 22:1 24:1 62:1 66:1 309:1 324:1 405:1 465:1 1331:1 #
-0.046863830964287707392390558425177 1:1 3:1 4:1 5:1 6:1 7:1 8:1 9:1 11:1 14:1 17:1 18:1 19:1 20:1 21:1 22:1 27:1 29:1 30:1 62:1 144:1 324:1 683:1 #
0.023806970390587003927329590169393 1:1 4:1 5:1 6:1 7:1 8:1 9:1 11:1 13:1 17:1 18:1 19:1 20:1 21:1 22:1 27:1 45:1 66:1 126:1 258:1 1210:1 1211:1 #
-0.03145817823766029058818460839575 1:1 3:1 4:1 5:1 6:1 7:1 8:1 9:1 11:1 18:1 19:1 20:1 21:1 22:1 26:1 27:1 102:1 174:1 1540:1 #
-0.031458178237660179565882145880096 1:1 3:1 4:1 5:1 6:1 7:1 8:1 9:1 11:1 18:1 19:1 20:1 21:1 22:1 26:1 27:1 102:1 174:1 1575:1 #
-0.046863830964287707392390558425177 1:1 2:1 3:1 4:1 5:1 6:1 7:1 8:1 9:1 11:1 17:1 18:1 19:1 20:1 21:1 26:1 50:1 62:1 77:1 245:1 #
0.046863830964287707392390558425177 1:1 3:1 4:1 5:1 6:1 7:1 8:1 9:1 11:1 14:1 18:1 19:1 20:1 21:1 22:1 24:1 43:1 55:1 186:1 815:1 816:1 #
0.046863830964287707392390558425177 1:1 3:1 4:1 5:1 6:1 7:1 8:1 9:1 11:1 14:1 18:1 19:1 20:1 21:1 22:1 24:1 49:1 55:1 56:1 83:1 182:1 208:1 #
0.046863830964287707392390558425177 1:1 3:1 4:1 5:1 6:1 7:1 8:1 9:1 11:1 18:1 19:1 20:1 21:1 22:1 24:1 26:1 35:1 55:1 109:1 725:1 #
-0.027522283315404072467913465516176 1:1 3:1 4:1 5:1 6:1 7:1 8:1 9:1 11:1 13:1 18:1 19:1 20:1 21:1 22:1 24:1 49:1 50:1 66:1 324:1 405:1 465:1 1281:1 #
0.046863830964287707392390558425177 1:1 3:1 4:1 5:1 6:1 7:1 8:1 9:1 11:1 14:1 18:1 19:1 20:1 21:1 22:1 55:1 66:1 102:1 405:1 860:1 #
-0.046863830964287707392390558425177 1:1 3:1 4:1 5:1 6:1 7:1 8:1 9:1 11:1 14:1 18:1 19:1 20:1 21:1 22:1 24:1 55:1 56:1 83:1 209:1 1684:1 #
-0.046863830964287707392390558425177 1:1 2:1 3:1 4:1 5:1 6:1 7:1 9:1 11:1 14:1 18:1 19:1 20:1 21:1 24:1 55:1 108:1 189:1 380:1 603:1 606:1 608:1 1837:1 #
-0.015737242239251852948811460919387 1:1 3:1 4:1 5:1 6:1 7:1 8:1 9:1 11:1 14:1 18:1 19:1 20:1 21:1 22:1 24:1 55:1 77:1 92:1 95:1 #
0.046863830964287707392390558425177 1:1 3:1 4:1 5:1 6:1 7:1 8:1 9:1 11:1 17:1 18:1 19:1 20:1 21:1 22:1 26:1 27:1 62:1 144:1 1731:1 #
0.046863830964287707392390558425177 1:1 3:1 4:1 5:1 6:1 7:1 8:1 9:1 11:1 17:1 18:1 19:1 20:1 21:1 22:1 26:1 27:1 62:1 144:1 1909:1 #
0.046863830964287707392390558425177 1:1 2:1 3:1 4:1 5:1 6:1 7:1 8:1 9:1 11:1 17:1 18:1 19:1 20:1 21:1 26:1 27:1 62:1 144:1 174:1 461:1 #
0.046863830964287707392390558425177 1:1 3:1 4:1 5:1 6:1 7:1 8:1 9:1 11:1 17:1 18:1 19:1 20:1 21:1 22:1 26:1 27:1 28:1 56:1 62:1 174:1 540:1 #
0.046863830964287707392390558425177 1:1 3:1 4:1 5:1 6:1 7:1 8:1 9:1 11:1 17:1 18:1 19:1 20:1 21:1 22:1 26:1 27:1 28:1 56:1 62:1 174:1 544:1 #
-0.046863830964287707392390558425177 1:1 2:1 3:1 4:1 5:1 6:1 7:1 8:1 9:1 16:1 18:1 19:1 20:1 21:1 45:1 102:1 137:1 146:1 164:1 174:1 300:1 301:1 #
-0.046863830964287707392390558425177 1:1 3:1 4:1 5:1 6:1 7:1 8:1 9:1 11:1 18:1 19:1 20:1 21:1 22:1 27:1 43:1 44:1 45:1 62:1 102:1 244:1 #
-0.046863830964287707392390558425177 1:1 3:1 4:1 5:1 6:1 7:1 8:1 9:1 11:1 18:1 19:1 20:1 21:1 22:1 27:1 36:1 45:1 83:1 102:1 545:1 #
-0.046863830964287707392390558425177 1:1 2:1 3:1 4:1 5:1 6:1 7:1 8:1 9:1 11:1 18:1 19:1 20:1 21:1 24:1 27:1 43:1 44:1 45:1 616:1 #
-0.026448170113867453673295315752512 1:1 3:1 4:1 5:1 6:1 7:1 8:1 9:1 11:1 17:1 18:1 19:1 20:1 21:1 22:1 26:1 27:1 231:1 299:1 609:1 611:1 1841:1 #
-0.032808676363711285206559153948547 1:1 3:1 4:1 5:1 6:1 7:1 8:1 9:1 11:1 17:1 18:1 19:1 20:1 21:1 22:1 26:1 27:1 144:1 174:1 373:1 #
0.046863830964287707392390558425177 1:1 3:1 4:1 5:1 6:1 7:1 8:1 9:1 11:1 14:1 17:1 18:1 19:1 20:1 21:1 22:1 27:1 62:1 92:1 188:1 280:1 #
0.046863830964287707392390558425177 1:1 2:1 3:1 4:1 5:1 6:1 7:1 8:1 9:1 11:1 14:1 18:1 19:1 20:1 21:1 24:1 27:1 108:1 380:1 608:1 609:1 1837:1 #
0.046863830964287707392390558425177 1:1 3:1 4:1 5:1 6:1 7:1 8:1 9:1 11:1 12:1 13:1 14:1 15:1 16:1 17:1 18:1 19:1 20:1 21:1 22:1 182:1 209:1 870:1 #
0.046863830964287707392390558425177 1:1 3:1 4:1 5:1 6:1 7:1 8:1 9:1 11:1 14:1 17:1 18:1 19:1 20:1 21:1 22:1 27:1 92:1 188:1 272:1 #
-0.046863830964287707392390558425177 1:1 3:1 4:1 5:1 6:1 7:1 8:1 9:1 11:1 14:1 17:1 18:1 19:1 20:1 21:1 22:1 27:1 62:1 92:1 109:1 170:1 643:1 #
-0.046863830964287707392390558425177 1:1 3:1 4:1 5:1 6:1 7:1 8:1 9:1 11:1 14:1 17:1 18:1 19:1 20:1 21:1 22:1 27:1 92:1 109:1 170:1 299:1 643:1 #
-0.046863830964287707392390558425177 1:1 4:1 5:1 6:1 7:1 8:1 9:1 11:1 14:1 18:1 19:1 20:1 21:1 22:1 24:1 27:1 62:1 92:1 109:1 126:1 129:1 170:1 299:1 652:1 653:1 #
-0.046863830964287707392390558425177 1:1 3:1 4:1 5:1 6:1 7:1 8:1 9:1 11:1 14:1 17:1 18:1 19:1 20:1 21:1 22:1 27:1 92:1 299:1 643:1 #
-0.046863830964287707392390558425177 1:1 3:1 4:1 5:1 6:1 7:1 8:1 9:1 11:1 14:1 16:1 17:1 18:1 19:1 20:1 21:1 22:1 27:1 92:1 643:1 #
0.046863830964287707392390558425177 1:1 2:1 3:1 4:1 5:1 6:1 7:1 8:1 9:1 11:1 18:1 19:1 20:1 21:1 26:1 27:1 32:1 33:1 102:1 365:1 #
0.046863830964287707392390558425177 1:1 3:1 4:1 5:1 6:1 7:1 8:1 9:1 11:1 18:1 19:1 20:1 21:1 22:1 27:1 43:1 44:1 45:1 102:1 244:1 #
0.046863830964287707392390558425177 1:1 3:1 4:1 5:1 6:1 7:1 8:1 9:1 11:1 15:1 18:1 19:1 20:1 21:1 22:1 45:1 102:1 146:1 164:1 174:1 992:1 #
0.046863830964287707392390558425177 1:1 2:1 3:1 4:1 5:1 6:1 7:1 8:1 9:1 11:1 17:1 18:1 19:1 20:1 21:1 26:1 27:1 138:1 175:1 #
0.046863830964287707392390558425177 1:1 2:1 3:1 4:1 5:1 6:1 7:1 8:1 9:1 11:1 16:1 18:1 19:1 20:1 21:1 26:1 29:1 30:1 55:1 102:1 209:1 358:1 #
-0.046863830964287707392390558425177 1:1 2:1 3:1 4:1 5:1 6:1 7:1 8:1 9:1 11:1 12:1 15:1 18:1 19:1 20:1 21:1 26:1 102:1 358:1 405:1 #
-0.046863830964287707392390558425177 1:1 2:1 3:1 4:1 5:1 6:1 7:1 8:1 9:1 12:1 15:1 18:1 19:1 20:1 21:1 26:1 62:1 102:1 137:1 174:1 358:1 405:1 #
-0.046863830964287707392390558425177 1:1 2:1 3:1 4:1 5:1 6:1 7:1 8:1 9:1 12:1 18:1 19:1 20:1 21:1 26:1 102:1 137:1 358:1 405:1 706:1 #
-0.046863830964287707392390558425177 1:1 2:1 3:1 4:1 5:1 6:1 7:1 8:1 9:1 11:1 18:1 19:1 20:1 21:1 26:1 55:1 57:1 102:1 186:1 365:1 #
0.021729887523746830441107036335779 1:1 4:1 5:1 6:1 7:1 8:1 9:1 11:1 14:1 17:1 18:1 19:1 20:1 21:1 22:1 27:1 62:1 126:1 229:1 231:1 316:1 393:1 523:1 #
0.046863830964287707392390558425177 1:1 4:1 5:1 6:1 7:1 8:1 9:1 11:1 14:1 16:1 18:1 19:1 20:1 21:1 22:1 24:1 27:1 92:1 126:1 170:1 299:1 774:1 1157:1 1199:1 #
0.046863830964287707392390558425177 1:1 4:1 5:1 6:1 7:1 8:1 9:1 11:1 14:1 18:1 19:1 20:1 21:1 22:1 24:1 27:1 92:1 126:1 170:1 299:1 774:1 1160:1 1161:1 #
0.018779115394373002007055717399453 1:1 4:1 5:1 6:1 7:1 8:1 9:1 11:1 14:1 18:1 19:1 20:1 21:1 22:1 24:1 27:1 56:1 62:1 92:1 126:1 129:1 652:1 653:1 #
0.046863830964287707392390558425177 1:1 4:1 5:1 6:1 7:1 8:1 9:1 11:1 14:1 17:1 18:1 19:1 20:1 21:1 22:1 27:1 62:1 126:1 237:1 299:1 315:1 316:1 317:1 319:1 326:1 #
-0.046863830964287707392390558425177 1:1 4:1 5:1 6:1 7:1 8:1 9:1 11:1 14:1 18:1 19:1 20:1 21:1 22:1 24:1 27:1 83:1 126:1 129:1 974:1 975:1 #
-0.046863830964287707392390558425177 1:1 4:1 5:1 6:1 7:1 8:1 9:1 11:1 14:1 18:1 19:1 20:1 21:1 22:1 27:1 126:1 177:1 322:1 326:1 509:1 877:1 1800:1 #
-0.046863830964287707392390558425177 1:1 4:1 5:1 6:1 7:1 8:1 9:1 11:1 14:1 18:1 19:1 20:1 21:1 22:1 24:1 55:1 126:1 237:1 316:1 326:1 393:1 1048:1 1489:1 #
-0.046863830964287707392390558425177 1:1 4:1 5:1 7:1 8:1 9:1 11:1 14:1 18:1 19:1 20:1 21:1 22:1 24:1 55:1 69:1 126:1 167:1 607:1 609:1 1188:1 1602:1 1603:1 #
-0.046863830964287707392390558425177 1:1 4:1 5:1 6:1 7:1 8:1 9:1 11:1 16:1 18:1 19:1 20:1 21:1 22:1 24:1 26:1 27:1 126:1 231:1 258:1 322:1 1660:1 #
0.046863830964287707392390558425177 1:1 2:1 3:1 4:1 5:1 7:1 8:1 9:1 11:1 12:1 15:1 18:1 19:1 20:1 21:1 26:1 62:1 69:1 102:1 174:1 358:1 405:1 #
0.046863830964287707392390558425177 1:1 2:1 3:1 4:1 5:1 6:1 7:1 8:1 9:1 11:1 12:1 18:1 19:1 20:1 21:1 26:1 102:1 174:1 301:1 358:1 405:1 #
0.046863830964287707392390558425177 1:1 2:1 3:1 4:1 5:1 6:1 7:1 8:1 9:1 15:1 18:1 19:1 20:1 21:1 26:1 37:1 38:1 49:1 102:1 137:1 209:1 358:1 #
0.046863830964287707392390558425177 1:1 3:1 4:1 5:1 6:1 7:1 8:1 9:1 11:1 12:1 18:1 19:1 20:1 21:1 22:1 26:1 62:1 102:1 174:1 182:1 405:1 705:1 706:1 #
0.046863830964287707392390558425177 1:1 2:1 3:1 4:1 5:1 7:1 8:1 9:1 11:1 12:1 15:1 18:1 19:1 20:1 21:1 26:1 29:1 69:1 102:1 209:1 358:1 #
-0.046863830964287707392390558425177 1:1 2:1 3:1 4:1 5:1 6:1 7:1 8:1 9:1 11:1 12:1 18:1 19:1 20:1 21:1 26:1 62:1 102:1 174:1 301:1 358:1 405:1 #
-0.046863830964287707392390558425177 1:1 2:1 3:1 4:1 5:1 6:1 7:1 8:1 9:1 11:1 18:1 19:1 20:1 21:1 26:1 27:1 37:1 38:1 62:1 102:1 174:1 358:1 #
-0.046863830964287707392390558425177 1:1 2:1 3:1 4:1 5:1 6:1 7:1 8:1 9:1 11:1 12:1 15:1 18:1 19:1 20:1 21:1 26:1 102:1 358:1 405:1 #
-0.046863830964287707392390558425177 1:1 2:1 3:1 4:1 5:1 6:1 7:1 8:1 9:1 11:1 12:1 18:1 19:1 20:1 21:1 26:1 62:1 102:1 301:1 358:1 405:1 #
-0.046863830964287707392390558425177 1:1 2:1 3:1 4:1 5:1 6:1 7:1 8:1 9:1 11:1 18:1 19:1 20:1 21:1 26:1 27:1 37:1 38:1 62:1 102:1 174:1 358:1 594:1 #
0.046863830964287707392390558425177 1:1 4:1 5:1 6:1 7:1 8:1 9:1 11:1 14:1 18:1 19:1 20:1 21:1 22:1 24:1 55:1 126:1 237:1 316:1 326:1 393:1 1048:1 1489:1 #
0.014423992703005544466221543586926 1:1 4:1 5:1 6:1 7:1 8:1 9:1 11:1 14:1 18:1 19:1 20:1 21:1 22:1 24:1 27:1 62:1 109:1 126:1 177:1 316:1 326:1 327:1 343:1 344:1 #
0.015337292593456281278307962168128 1:1 4:1 5:1 6:1 7:1 8:1 9:1 11:1 14:1 18:1 19:1 20:1 21:1 22:1 24:1 48:1 55:1 115:1 120:1 126:1 134:1 258:1 376:1 834:1 #
0.046863830964287707392390558425177 1:1 4:1 5:1 6:1 7:1 8:1 9:1 11:1 14:1 16:1 18:1 19:1 20:1 21:1 22:1 24:1 43:1 55:1 126:1 186:1 1083:1 1084:1 1085:1 #
0.024229670268022092394222255506975 1:1 2:1 3:1 4:1 5:1 6:1 7:1 8:1 9:1 11:1 18:1 19:1 20:1 21:1 26:1 27:1 102:1 580:1 #
-0.046863830964287707392390558425177 1:1 4:1 5:1 7:1 8:1 9:1 11:1 18:1 19:1 20:1 21:1 22:1 24:1 26:1 55:1 56:1 69:1 77:1 126:1 318:1 774:1 1160:1 1161:1 #
0.046863830964287707392390558425177 1:1 2:1 3:1 4:1 5:1 6:1 7:1 8:1 9:1 11:1 18:1 19:1 20:1 21:1 26:1 27:1 37:1 38:1 102:1 358:1 594:1 #
-0.046863830964287707392390558425177 1:1 3:1 4:1 5:1 6:1 7:1 8:1 9:1 11:1 14:1 15:1 18:1 19:1 20:1 21:1 22:1 44:1 46:1 48:1 675:1 #
0.046863830964287707392390558425177 1:1 2:1 3:1 4:1 5:1 6:1 7:1 8:1 9:1 11:1 16:1 18:1 19:1 20:1 21:1 24:1 26:1 27:1 79:1 144:1 299:1 649:1 #
-0.046863830964287707392390558425177 1:1 3:1 4:1 5:1 6:1 7:1 8:1 9:1 11:1 14:1 18:1 19:1 20:1 21:1 22:1 24:1 27:1 43:1 52:1 388:1 836:1 #
-0.046863830964287707392390558425177 1:1 3:1 4:1 5:1 6:1 7:1 8:1 9:1 11:1 14:1 15:1 17:1 18:1 19:1 20:1 21:1 22:1 43:1 49:1 186:1 775:1 #
-0.046863830964287707392390558425177 1:1 3:1 4:1 5:1 6:1 7:1 8:1 9:1 11:1 14:1 15:1 18:1 19:1 20:1 21:1 22:1 44:1 46:1 48:1 62:1 678:1 #
0.046863830964287707392390558425177 1:1 2:1 3:1 4:1 5:1 6:1 7:1 8:1 9:1 18:1 19:1 20:1 21:1 26:1 27:1 62:1 102:1 136:1 137:1 138:1 #
0.046863830964287707392390558425177 1:1 2:1 3:1 4:1 5:1 7:1 8:1 9:1 11:1 17:1 18:1 19:1 20:1 21:1 26:1 38:1 55:1 69:1 174:1 309:1 405:1 776:1 #
0.046863830964287707392390558425177 1:1 2:1 3:1 4:1 5:1 6:1 7:1 8:1 9:1 18:1 19:1 20:1 21:1 26:1 27:1 102:1 137:1 213:1 228:1 #
0.046863830964287707392390558425177 1:1 2:1 3:1 4:1 5:1 7:1 8:1 9:1 11:1 12:1 15:1 18:1 19:1 20:1 21:1 24:1 26:1 62:1 69:1 174:1 405:1 1552:1 #
0.046863830964287707392390558425177 1:1 2:1 3:1 4:1 5:1 6:1 7:1 8:1 9:1 11:1 12:1 13:1 18:1 19:1 20:1 21:1 62:1 66:1 102:1 301:1 358:1 405:1 465:1 #
-0.046863830964287707392390558425177 1:1 2:1 3:1 4:1 5:1 7:1 8:1 9:1 11:1 12:1 18:1 19:1 20:1 21:1 24:1 26:1 37:1 55:1 62:1 69:1 174:1 182:1 1693:1 #
-0.046863830964287707392390558425177 1:1 2:1 3:1 4:1 5:1 6:1 7:1 8:1 9:1 18:1 19:1 20:1 21:1 26:1 27:1 29:1 30:1 62:1 102:1 137:1 174:1 358:1 #
-0.046863830964287707392390558425177 1:1 2:1 3:1 4:1 5:1 6:1 7:1 8:1 9:1 11:1 18:1 19:1 20:1 21:1 24:1 27:1 45:1 229:1 319:1 326:1 1217:1 #
-0.046863830964287707392390558425177 1:1 2:1 3:1 4:1 5:1 6:1 7:1 8:1 9:1 11:1 18:1 19:1 20:1 21:1 26:1 29:1 55:1 62:1 102:1 209:1 892:1 #
0.046863830964287707392390558425177 1:1 3:1 4:1 5:1 6:1 7:1 8:1 9:1 11:1 15:1 17:1 18:1 19:1 20:1 21:1 22:1 26:1 77:1 107:1 108:1 109:1 #
0.046863830964287707392390558425177 1:1 3:1 4:1 5:1 6:1 7:1 8:1 9:1 11:1 15:1 17:1 18:1 19:1 20:1 21:1 22:1 26:1 76:1 77:1 #
0.046863830964287707392390558425177 1:1 3:1 4:1 5:1 6:1 7:1 8:1 9:1 11:1 14:1 16:1 17:1 18:1 19:1 20:1 21:1 22:1 43:1 55:1 185:1 186:1 388:1 #
0.046863830964287707392390558425177 1:1 3:1 4:1 5:1 6:1 7:1 8:1 9:1 11:1 14:1 17:1 18:1 19:1 20:1 21:1 22:1 33:1 43:1 48:1 50:1 251:1 818:1 #
0.046863830964287707392390558425177 1:1 3:1 4:1 5:1 6:1 7:1 8:1 9:1 11:1 14:1 17:1 18:1 19:1 20:1 21:1 22:1 43:1 55:1 62:1 185:1 186:1 #
-0.046863830964287707392390558425177 1:1 4:1 5:1 7:1 8:1 9:1 11:1 17:1 18:1 19:1 20:1 21:1 22:1 26:1 35:1 55:1 69:1 126:1 975:1 1085:1 1816:1 #
-0.024426337077610882353440047154436 1:1 3:1 4:1 5:1 6:1 7:1 8:1 9:1 11:1 13:1 15:1 17:1 18:1 19:1 20:1 21:1 22:1 62:1 66:1 309:1 324:1 405:1 465:1 1335:1 #
-0.038607186215797395512083767243894 1:1 3:1 4:1 5:1 6:1 7:1 8:1 9:1 11:1 13:1 17:1 18:1 19:1 20:1 21:1 22:1 49:1 50:1 66:1 324:1 405:1 465:1 1282:1 #
-0.0041004240628296027143528945657636 1:1 3:1 4:1 5:1 6:1 7:1 8:1 9:1 11:1 13:1 17:1 18:1 19:1 20:1 21:1 22:1 50:1 66:1 109:1 117:1 405:1 566:1 1334:1 #
-0.046863830964287707392390558425177 1:1 3:1 4:1 5:1 6:1 7:1 8:1 9:1 11:1 13:1 15:1 17:1 18:1 19:1 20:1 21:1 22:1 62:1 66:1 324:1 405:1 465:1 1266:1 #
0.046863830964287707392390558425177 1:1 2:1 3:1 4:1 5:1 6:1 7:1 8:1 11:1 18:1 19:1 20:1 21:1 24:1 26:1 27:1 62:1 86:1 144:1 153:1 245:1 #
0.046863830964287707392390558425177 1:1 2:1 3:1 4:1 5:1 6:1 7:1 8:1 9:1 11:1 18:1 19:1 20:1 21:1 24:1 26:1 27:1 62:1 86:1 91:1 #
0.046863830964287707392390558425177 1:1 2:1 3:1 4:1 5:1 6:1 7:1 8:1 9:1 11:1 18:1 19:1 20:1 21:1 24:1 26:1 27:1 86:1 245:1 299:1 #
0.046863830964287707392390558425177 1:1 2:1 3:1 4:1 5:1 6:1 7:1 8:1 9:1 11:1 18:1 19:1 20:1 21:1 26:1 27:1 29:1 30:1 102:1 358:1 #
0.046863830964287707392390558425177 1:1 3:1 4:1 5:1 6:1 7:1 8:1 9:1 11:1 18:1 19:1 20:1 21:1 22:1 24:1 27:1 36:1 45:1 51:1 52:1 150:1 1129:1 #
-0.046863830964287707392390558425177 1:1 2:1 3:1 4:1 5:1 6:1 7:1 8:1 11:1 14:1 18:1 19:1 20:1 21:1 24:1 27:1 62:1 146:1 153:1 679:1 #
-0.046863830964287707392390558425177 1:1 2:1 3:1 4:1 5:1 6:1 7:1 8:1 9:1 11:1 16:1 18:1 19:1 21:1 24:1 26:1 27:1 255:1 427:1 886:1 #
-0.046863830964287707392390558425177 1:1 2:1 3:1 4:1 5:1 6:1 7:1 8:1 9:1 11:1 18:1 19:1 20:1 21:1 26:1 27:1 102:1 213:1 504:1 #
-0.046863830964287707392390558425177 1:1 2:1 3:1 4:1 5:1 6:1 7:1 8:1 9:1 18:1 19:1 20:1 21:1 26:1 27:1 102:1 137:1 213:1 504:1 #
-0.046863830964287707392390558425177 1:1 2:1 3:1 4:1 5:1 6:1 7:1 8:1 9:1 11:1 18:1 19:1 20:1 21:1 26:1 27:1 102:1 138:1 177:1 504:1 #
0.046863830964287707392390558425177 1:1 3:1 4:1 5:1 6:1 7:1 8:1 9:1 11:1 13:1 18:1 19:1 20:1 21:1 22:1 24:1 49:1 50:1 66:1 324:1 405:1 465:1 1272:1 #
0.046863830964287707392390558425177 1:1 3:1 4:1 5:1 6:1 7:1 8:1 9:1 11:1 13:1 15:1 18:1 19:1 20:1 21:1 22:1 24:1 62:1 66:1 324:1 405:1 465:1 1258:1 #
0.046863830964287707392390558425177 1:1 3:1 4:1 5:1 6:1 7:1 8:1 9:1 11:1 13:1 17:1 18:1 19:1 20:1 21:1 22:1 45:1 50:1 66:1 174:1 309:1 405:1 1299:1 #
0.046863830964287707392390558425177 1:1 3:1 4:1 5:1 6:1 7:1 8:1 9:1 11:1 14:1 17:1 18:1 19:1 20:1 21:1 22:1 55:1 62:1 66:1 405:1 824:1 #
0.046863830964287707392390558425177 1:1 3:1 4:1 5:1 6:1 7:1 8:1 9:1 11:1 14:1 17:1 18:1 19:1 20:1 21:1 22:1 55:1 62:1 66:1 101:1 109:1 405:1 860:1 #
-0.046863830964287707392390558425177 1:1 3:1 4:1 5:1 6:1 7:1 8:1 9:1 11:1 13:1 17:1 18:1 19:1 20:1 21:1 22:1 45:1 50:1 62:1 66:1 174:1 309:1 405:1 1302:1 #
-0.046863830964287707392390558425177 1:1 3:1 4:1 5:1 6:1 7:1 8:1 9:1 11:1 13:1 17:1 18:1 19:1 20:1 21:1 22:1 45:1 50:1 62:1 66:1 174:1 309:1 405:1 1310:1 #
-0.046863830964287707392390558425177 1:1 3:1 4:1 5:1 6:1 7:1 8:1 9:1 11:1 13:1 17:1 18:1 19:1 20:1 21:1 22:1 45:1 55:1 66:1 309:1 405:1 1313:1 #
-0.013572635212791298031653752786951 1:1 3:1 4:1 5:1 6:1 7:1 8:1 9:1 11:1 13:1 15:1 18:1 19:1 20:1 21:1 22:1 24:1 62:1 66:1 309:1 324:1 405:1 465:1 1345:1 #
0.046863830964287707392390558425177 1:1 2:1 3:1 4:1 5:1 6:1 7:1 8:1 9:1 11:1 16:1 18:1 19:1 20:1 21:1 26:1 27:1 37:1 102:1 174:1 358:1 #
0.046863830964287707392390558425177 1:1 2:1 3:1 4:1 5:1 6:1 7:1 8:1 9:1 18:1 19:1 20:1 21:1 26:1 55:1 102:1 137:1 231:1 236:1 504:1 #
0.046863830964287707392390558425177 1:1 2:1 3:1 4:1 5:1 6:1 7:1 8:1 9:1 11:1 18:1 19:1 20:1 21:1 26:1 27:1 102:1 504:1 #
0.01469149779669839082918425532398 1:1 2:1 3:1 4:1 5:1 6:1 7:1 8:1 9:1 11:1 17:1 18:1 19:1 20:1 21:1 26:1 50:1 345:1 1048:1 1057:1 #
0.046863830964287707392390558425177 1:1 2:1 3:1 4:1 5:1 6:1 7:1 8:1 9:1 18:1 19:1 20:1 21:1 26:1 27:1 102:1 137:1 240:1 971:1 #
-0.046863830964287707392390558425177 1:1 2:1 3:1 4:1 5:1 6:1 7:1 8:1 9:1 11:1 18:1 19:1 20:1 21:1 26:1 27:1 37:1 38:1 102:1 108:1 358:1 #
0.046863830964287707392390558425177 1:1 3:1 4:1 5:1 6:1 7:1 8:1 9:1 11:1 13:1 18:1 19:1 20:1 21:1 22:1 45:1 55:1 62:1 66:1 560:1 561:1 562:1 #
-0.046863830964287707392390558425177 1:1 2:1 3:1 4:1 5:1 6:1 7:1 8:1 9:1 18:1 19:1 20:1 21:1 26:1 27:1 29:1 30:1 102:1 137:1 174:1 358:1 #
-0.046863830964287707392390558425177 1:1 2:1 3:1 4:1 5:1 7:1 8:1 11:1 18:1 19:1 20:1 21:1 24:1 26:1 55:1 69:1 77:1 153:1 245:1 #
-0.046863830964287707392390558425177 1:1 2:1 3:1 4:1 5:1 6:1 7:1 8:1 9:1 14:1 18:1 19:1 20:1 21:1 27:1 102:1 137:1 177:1 211:1 504:1 #
-0.046863830964287707392390558425177 1:1 2:1 3:1 4:1 5:1 6:1 7:1 8:1 9:1 11:1 14:1 18:1 19:1 20:1 21:1 27:1 102:1 109:1 116:1 121:1 #
0.046863830964287707392390558425177 1:1 2:1 3:1 4:1 5:1 6:1 7:1 8:1 9:1 11:1 12:1 13:1 15:1 17:1 18:1 19:1 20:1 21:1 45:1 66:1 358:1 405:1 #
0.046863830964287707392390558425177 1:1 3:1 4:1 5:1 6:1 7:1 8:1 9:1 11:1 12:1 13:1 18:1 19:1 20:1 21:1 22:1 66:1 102:1 405:1 465:1 744:1 745:1 #
0.046863830964287707392390558425177 1:1 3:1 4:1 5:1 6:1 7:1 8:1 9:1 11:1 13:1 17:1 18:1 19:1 20:1 21:1 22:1 27:1 45:1 66:1 1072:1 #
0.046863830964287707392390558425177 1:1 3:1 4:1 5:1 6:1 7:1 8:1 9:1 11:1 13:1 17:1 18:1 19:1 20:1 21:1 22:1 27:1 45:1 66:1 1213:1 #
0.046863830964287707392390558425177 1:1 3:1 4:1 5:1 6:1 7:1 8:1 9:1 11:1 13:1 17:1 18:1 19:1 20:1 21:1 22:1 27:1 45:1 66:1 108:1 1570:1 #
-0.046863830964287707392390558425177 1:1 3:1 4:1 5:1 6:1 7:1 8:1 9:1 11:1 13:1 17:1 18:1 19:1 20:1 21:1 22:1 27:1 45:1 66:1 777:1 #
-0.046863830964287707392390558425177 1:1 3:1 4:1 5:1 6:1 7:1 8:1 9:1 11:1 13:1 17:1 18:1 19:1 20:1 21:1 22:1 27:1 45:1 66:1 1181:1 #
-0.046863830964287707392390558425177 1:1 3:1 4:1 5:1 6:1 7:1 8:1 9:1 11:1 13:1 17:1 18:1 19:1 20:1 21:1 22:1 27:1 45:1 66:1 174:1 182:1 1458:1 #
-0.046863830964287707392390558425177 1:1 3:1 4:1 5:1 6:1 7:1 8:1 9:1 11:1 13:1 17:1 18:1 19:1 20:1 21:1 22:1 23:1 27:1 45:1 66:1 #
-0.046863830964287707392390558425177 1:1 3:1 4:1 5:1 6:1 7:1 8:1 9:1 11:1 13:1 18:1 19:1 20:1 21:1 22:1 24:1 27:1 45:1 66:1 1180:1 #
0.046863830964287707392390558425177 1:1 2:1 3:1 4:1 5:1 7:1 8:1 9:1 11:1 15:1 18:1 19:1 20:1 21:1 24:1 26:1 35:1 62:1 69:1 173:1 174:1 1555:1 #
0.046863830964287707392390558425177 1:1 2:1 3:1 4:1 5:1 6:1 7:1 8:1 9:1 14:1 18:1 19:1 20:1 21:1 27:1 62:1 102:1 137:1 177:1 211:1 228:1 #
0.046863830964287707392390558425177 1:1 2:1 3:1 4:1 5:1 6:1 7:1 8:1 9:1 11:1 18:1 19:1 20:1 21:1 24:1 26:1 35:1 49:1 50:1 174:1 567:1 #
-0.046863830964287707392390558425177 1:1 2:1 3:1 4:1 5:1 7:1 8:1 9:1 11:1 15:1 18:1 19:1 20:1 21:1 24:1 26:1 48:1 51:1 62:1 69:1 186:1 1360:1 #
-0.046863830964287707392390558425177 1:1 2:1 3:1 4:1 5:1 6:1 7:1 8:1 9:1 11:1 15:1 16:1 18:1 19:1 20:1 21:1 24:1 26:1 33:1 48:1 51:1 1045:1 #
-0.046863830964287707392390558425177 1:1 2:1 3:1 4:1 5:1 6:1 7:1 8:1 9:1 11:1 18:1 19:1 20:1 21:1 26:1 55:1 62:1 102:1 138:1 225:1 228:1 #
-0.046863830964287707392390558425177 1:1 4:1 5:1 7:1 8:1 9:1 11:1 18:1 19:1 20:1 21:1 22:1 24:1 26:1 33:1 48:1 51:1 55:1 62:1 69:1 126:1 774:1 1355:1 1356:1 #
0.046863830964287707392390558425177 1:1 3:1 4:1 5:1 6:1 7:1 8:1 9:1 11:1 17:1 18:1 19:1 20:1 21:1 22:1 26:1 27:1 30:1 309:1 1631:1 #
0.046863830964287707392390558425177 1:1 3:1 4:1 5:1 6:1 7:1 8:1 9:1 11:1 13:1 14:1 18:1 19:1 20:1 21:1 22:1 27:1 30:1 87:1 182:1 1625:1 #
-0.046863830964287707392390558425177 1:1 2:1 3:1 4:1 5:1 6:1 7:1 8:1 9:1 11:1 14:1 17:1 18:1 19:1 20:1 21:1 27:1 43:1 52:1 365:1 #
-0.046863830964287707392390558425177 1:1 2:1 3:1 4:1 5:1 6:1 7:1 8:1 9:1 11:1 14:1 17:1 18:1 19:1 20:1 21:1 43:1 108:1 186:1 365:1 380:1 495:1 #
-0.046863830964287707392390558425177 1:1 2:1 3:1 4:1 5:1 6:1 7:1 8:1 9:1 11:1 14:1 17:1 18:1 19:1 20:1 21:1 27:1 43:1 51:1 52:1 365:1 #
-0.046863830964287707392390558425177 1:1 4:1 5:1 6:1 7:1 8:1 9:1 11:1 17:1 18:1 19:1 20:1 21:1 22:1 26:1 27:1 126:1 144:1 174:1 288:1 289:1 290:1 #
0.0282401348266934082431589558837 1:1 2:1 3:1 4:1 5:1 6:1 7:1 8:1 9:1 11:1 18:1 19:1 20:1 21:1 26:1 27:1 102:1 144:1 1521:1 #
0.046863830964287707392390558425177 1:1 3:1 4:1 5:1 6:1 7:1 8:1 9:1 11:1 14:1 18:1 19:1 20:1 21:1 22:1 24:1 44:1 48:1 51:1 55:1 62:1 388:1 835:1 #
0.046863830964287707392390558425177 1:1 4:1 5:1 6:1 7:1 8:1 9:1 11:1 16:1 18:1 19:1 20:1 21:1 22:1 26:1 27:1 102:1 126:1 174:1 226:1 237:1 321:1 322:1 323:1 #
0.046863830964287707392390558425177 1:1 3:1 4:1 5:1 6:1 7:1 8:1 9:1 11:1 15:1 18:1 19:1 20:1 21:1 22:1 24:1 45:1 606:1 607:1 608:1 1609:1 #
0.046863830964287707392390558425177 1:1 3:1 4:1 5:1 6:1 7:1 8:1 9:1 11:1 15:1 16:1 18:1 19:1 20:1 21:1 22:1 24:1 33:1 43:1 45:1 48:1 1044:1 #
0.046863830964287707392390558425177 1:1 3:1 4:1 5:1 6:1 7:1 8:1 9:1 11:1 18:1 19:1 20:1 21:1 22:1 26:1 55:1 102:1 404:1 405:1 #
-0.0013850557244842378462612586531577 1:1 4:1 5:1 7:1 8:1 9:1 11:1 17:1 18:1 19:1 20:1 21:1 22:1 26:1 55:1 69:1 126:1 233:1 234:1 235:1 236:1 237:1 #
0.027106231411399193953482011920642 1:1 4:1 5:1 6:1 7:1 8:1 11:1 14:1 18:1 19:1 20:1 21:1 22:1 24:1 27:1 57:1 116:1 126:1 153:1 261:1 262:1 263:1 264:1 #
0.028202754357155662701117648794025 1:1 4:1 5:1 6:1 7:1 8:1 9:1 11:1 14:1 17:1 18:1 19:1 20:1 21:1 22:1 27:1 83:1 126:1 975:1 1229:1 1314:1 #
-0.0011228661871875919575636260105966 1:1 3:1 4:1 5:1 6:1 7:1 8:1 9:1 11:1 12:1 17:1 18:1 19:1 20:1 21:1 22:1 26:1 62:1 301:1 405:1 707:1 #
-0.046863830964287707392390558425177 1:1 3:1 4:1 5:1 6:1 7:1 8:1 9:1 11:1 18:1 19:1 20:1 21:1 22:1 24:1 45:1 55:1 229:1 326:1 327:1 345:1 1492:1 #
0.025487263975242903379925252238536 1:1 4:1 5:1 6:1 7:1 8:1 9:1 11:1 14:1 17:1 18:1 19:1 20:1 21:1 22:1 27:1 92:1 126:1 144:1 290:1 477:1 478:1 #
0.044493203782013671099271334696823 1:1 2:1 3:1 4:1 5:1 6:1 7:1 8:1 9:1 11:1 18:1 19:1 20:1 21:1 27:1 43:1 44:1 45:1 569:1 594:1 949:1 #
0.043517666911164785970012047755517 1:1 4:1 5:1 6:1 7:1 8:1 9:1 11:1 16:1 17:1 18:1 19:1 20:1 21:1 22:1 27:1 45:1 126:1 326:1 442:1 1427:1 1428:1 1429:1 #
0.046863830964287707392390558425177 1:1 2:1 3:1 4:1 5:1 7:1 8:1 9:1 11:1 17:1 18:1 19:1 20:1 21:1 26:1 48:1 69:1 108:1 186:1 365:1 380:1 486:1 #
0.046863830964287707392390558425177 1:1 2:1 3:1 4:1 5:1 6:1 7:1 8:1 9:1 11:1 17:1 18:1 19:1 20:1 21:1 26:1 27:1 33:1 57:1 365:1 #
-0.046863830964287707392390558425177 1:1 2:1 3:1 4:1 5:1 6:1 7:1 8:1 9:1 11:1 18:1 20:1 21:1 27:1 43:1 44:1 45:1 219:1 949:1 959:1 #
0.046863830964287707392390558425177 1:1 4:1 5:1 6:1 7:1 8:1 9:1 11:1 18:1 19:1 20:1 21:1 22:1 26:1 55:1 102:1 126:1 144:1 167:1 174:1 225:1 609:1 1149:1 1150:1 #
-0.046863830964287707392390558425177 1:1 2:1 3:1 4:1 5:1 6:1 7:1 8:1 9:1 11:1 15:1 17:1 18:1 19:1 20:1 21:1 26:1 77:1 96:1 #
-0.046863830964287707392390558425177 1:1 2:1 3:1 4:1 5:1 6:1 7:1 8:1 9:1 11:1 15:1 17:1 18:1 19:1 21:1 26:1 62:1 259:1 427:1 1056:1 #
-0.046863830964287707392390558425177 1:1 2:1 3:1 4:1 5:1 6:1 7:1 8:1 9:1 11:1 12:1 13:1 17:1 18:1 19:1 20:1 21:1 66:1 174:1 251:1 301:1 358:1 405:1 465:1 #
0.046863830964287707392390558425177 1:1 3:1 4:1 5:1 6:1 7:1 8:1 9:1 11:1 18:1 19:1 20:1 21:1 22:1 24:1 27:1 29:1 45:1 66:1 566:1 1637:1 #
0.046863830964287707392390558425177 1:1 3:1 4:1 5:1 6:1 7:1 8:1 9:1 11:1 12:1 18:1 19:1 20:1 21:1 22:1 24:1 26:1 29:1 55:1 109:1 182:1 537:1 #
0.046863830964287707392390558425177 1:1 3:1 4:1 5:1 6:1 7:1 8:1 9:1 11:1 16:1 18:1 19:1 20:1 21:1 22:1 26:1 27:1 231:1 959:1 1661:1 #
0.046863830964287707392390558425177 1:1 3:1 4:1 5:1 6:1 7:1 8:1 9:1 11:1 18:1 19:1 20:1 21:1 22:1 26:1 30:1 55:1 102:1 405:1 1869:1 #
0.014959737846819301174128291620491 1:1 4:1 5:1 6:1 7:1 8:1 9:1 11:1 17:1 18:1 19:1 20:1 21:1 22:1 45:1 55:1 126:1 229:1 322:1 323:1 326:1 345:1 1491:1 #
-0.046863830964287707392390558425177 1:1 3:1 4:1 5:1 6:1 7:1 8:1 9:1 11:1 14:1 18:1 19:1 20:1 21:1 22:1 24:1 27:1 33:1 43:1 62:1 185:1 #
-0.025172998661545608473089075118878 1:1 3:1 4:1 5:1 6:1 7:1 8:1 9:1 11:1 18:1 19:1 20:1 21:1 22:1 26:1 27:1 62:1 102:1 144:1 174:1 709:1 #
-0.022058443161928575210195546674186 1:1 3:1 4:1 5:1 6:1 7:1 8:1 9:1 11:1 18:1 19:1 20:1 21:1 22:1 26:1 27:1 62:1 102:1 174:1 419:1 #
-0.046863830964287707392390558425177 1:1 3:1 4:1 5:1 6:1 7:1 8:1 9:1 11:1 14:1 18:1 19:1 20:1 21:1 22:1 27:1 83:1 102:1 109:1 170:1 309:1 1476:1 #
-0.046863830964287707392390558425177 1:1 3:1 4:1 5:1 6:1 7:1 8:1 9:1 11:1 14:1 18:1 19:1 20:1 21:1 22:1 27:1 83:1 102:1 109:1 170:1 309:1 596:1 #
0.046863830964287707392390558425177 1:1 2:1 3:1 4:1 5:1 6:1 7:1 9:1 11:1 15:1 18:1 19:1 20:1 21:1 24:1 26:1 189:1 606:1 610:1 914:1 #
0.046863830964287707392390558425177 1:1 2:1 3:1 4:1 5:1 6:1 7:1 8:1 9:1 11:1 15:1 18:1 19:1 20:1 21:1 26:1 77:1 102:1 174:1 727:1 #
0.046863830964287707392390558425177 1:1 2:1 3:1 4:1 5:1 6:1 7:1 8:1 9:1 11:1 18:1 19:1 20:1 21:1 24:1 26:1 27:1 62:1 174:1 231:1 299:1 327:1 355:1 #
0.029927512661279149358550810688939 1:1 2:1 3:1 4:1 5:1 6:1 7:1 8:1 9:1 11:1 15:1 17:1 18:1 19:1 20:1 21:1 26:1 131:1 259:1 #
0.0073922063294978232472765000693471 1:1 2:1 3:1 4:1 5:1 6:1 7:1 8:1 9:1 11:1 14:1 18:1 19:1 20:1 21:1 49:1 55:1 102:1 324:1 927:1 #
-0.046863830964287707392390558425177 1:1 2:1 3:1 4:1 5:1 6:1 7:1 8:1 9:1 11:1 15:1 18:1 19:1 20:1 21:1 24:1 26:1 77:1 96:1 #
0.046863830964287707392390558425177 1:1 3:1 4:1 5:1 6:1 7:1 8:1 9:1 11:1 14:1 17:1 18:1 19:1 20:1 21:1 22:1 27:1 56:1 62:1 83:1 594:1 658:1 #
-0.046863830964287707392390558425177 1:1 2:1 3:1 4:1 5:1 6:1 7:1 9:1 11:1 14:1 18:1 19:1 20:1 21:1 24:1 55:1 108:1 189:1 380:1 603:1 606:1 608:1 1837:1 #
-0.046863830964287707392390558425177 1:1 2:1 3:1 4:1 5:1 6:1 7:1 8:1 9:1 11:1 15:1 17:1 18:1 19:1 20:1 21:1 26:1 48:1 122:1 925:1 943:1 #
-0.046863830964287707392390558425177 1:1 2:1 3:1 4:1 5:1 6:1 7:1 8:1 9:1 11:1 16:1 17:1 18:1 19:1 20:1 21:1 26:1 27:1 665:1 #
-0.046863830964287707392390558425177 1:1 2:1 3:1 4:1 5:1 6:1 7:1 8:1 9:1 11:1 18:1 19:1 20:1 21:1 26:1 30:1 55:1 102:1 358:1 405:1 #
0.046863830964287707392390558425177 1:1 3:1 4:1 5:1 6:1 7:1 8:1 9:1 11:1 14:1 18:1 19:1 20:1 21:1 22:1 24:1 27:1 43:1 51:1 52:1 390:1 #
0.046863830964287707392390558425177 1:1 3:1 4:1 5:1 6:1 7:1 8:1 9:1 11:1 14:1 18:1 19:1 20:1 21:1 22:1 24:1 27:1 43:1 52:1 337:1 #
0.046863830964287707392390558425177 1:1 3:1 4:1 5:1 6:1 7:1 8:1 9:1 11:1 14:1 18:1 19:1 20:1 21:1 22:1 24:1 27:1 83:1 170:1 1862:1 #
0.046863830964287707392390558425177 1:1 3:1 4:1 5:1 6:1 7:1 8:1 9:1 11:1 18:1 19:1 20:1 21:1 22:1 26:1 27:1 28:1 102:1 169:1 170:1 #
0.046863830964287707392390558425177 1:1 3:1 4:1 5:1 6:1 7:1 8:1 9:1 11:1 17:1 18:1 19:1 20:1 21:1 22:1 26:1 27:1 39:1 109:1 544:1 #
-0.046863830964287707392390558425177 1:1 4:1 5:1 6:1 7:1 8:1 9:1 11:1 18:1 19:1 20:1 21:1 22:1 26:1 27:1 126:1 167:1 226:1 316:1 961:1 1809:1 #
-0.046863830964287707392390558425177 1:1 3:1 4:1 5:1 6:1 7:1 8:1 9:1 11:1 14:1 18:1 19:1 20:1 21:1 22:1 24:1 27:1 92:1 144:1 274:1 #
-0.046863830964287707392390558425177 1:1 3:1 4:1 5:1 6:1 7:1 8:1 9:1 11:1 14:1 18:1 19:1 20:1 21:1 22:1 24:1 27:1 92:1 133:1 144:1 444:1 1505:1 #
-0.046863830964287707392390558425177 1:1 3:1 4:1 5:1 6:1 7:1 8:1 9:1 11:1 14:1 18:1 19:1 20:1 21:1 22:1 24:1 27:1 28:1 56:1 109:1 566:1 663:1 #
0.046863830964287707392390558425177 1:1 2:1 3:1 4:1 5:1 6:1 7:1 8:1 9:1 11:1 18:1 19:1 20:1 21:1 26:1 29:1 30:1 49:1 55:1 102:1 654:1 #
0.046863830964287707392390558425177 1:1 2:1 3:1 4:1 5:1 6:1 7:1 8:1 9:1 11:1 17:1 18:1 19:1 20:1 21:1 26:1 55:1 197:1 209:1 231:1 665:1 666:1 #
0.046863830964287707392390558425177 1:1 2:1 3:1 4:1 5:1 6:1 7:1 8:1 9:1 11:1 18:1 19:1 20:1 21:1 26:1 37:1 38:1 49:1 55:1 102:1 179:1 #
0.046863830964287707392390558425177 1:1 3:1 4:1 5:1 6:1 7:1 8:1 9:1 11:1 17:1 18:1 19:1 20:1 21:1 22:1 26:1 55:1 77:1 133:1 251:1 1499:1 #
0.046863830964287707392390558425177 1:1 2:1 3:1 4:1 5:1 6:1 7:1 8:1 9:1 11:1 18:1 19:1 20:1 21:1 26:1 27:1 29:1 62:1 102:1 109:1 358:1 #
-0.046863830964287707392390558425177 1:1 2:1 3:1 4:1 5:1 7:1 8:1 9:1 11:1 17:1 18:1 19:1 20:1 21:1 26:1 55:1 69:1 77:1 188:1 1509:1 #
-0.046863830964287707392390558425177 1:1 2:1 3:1 4:1 5:1 7:1 8:1 9:1 11:1 15:1 18:1 19:1 20:1 21:1 26:1 35:1 69:1 102:1 209:1 592:1 594:1 #
-0.046863830964287707392390558425177 1:1 2:1 3:1 4:1 5:1 6:1 7:1 8:1 9:1 11:1 15:1 18:1 19:1 20:1 21:1 26:1 77:1 102:1 174:1 727:1 #
-0.046863830964287707392390558425177 1:1 2:1 3:1 4:1 5:1 6:1 7:1 8:1 9:1 11:1 15:1 18:1 19:1 20:1 21:1 26:1 77:1 102:1 727:1 #
0.046863830964287707392390558425177 1:1 3:1 4:1 5:1 6:1 7:1 8:1 9:1 11:1 14:1 18:1 19:1 20:1 21:1 22:1 24:1 27:1 56:1 92:1 318:1 1021:1 #
0.044684549626366448782377460702264 1:1 4:1 5:1 6:1 7:1 8:1 9:1 11:1 14:1 18:1 19:1 20:1 21:1 22:1 24:1 27:1 92:1 126:1 144:1 165:1 166:1 167:1 #
0.046863830964287707392390558425177 1:1 3:1 4:1 5:1 6:1 7:1 8:1 9:1 11:1 14:1 18:1 19:1 20:1 21:1 22:1 24:1 27:1 56:1 62:1 92:1 318:1 1158:1 #
0.046863830964287707392390558425177 1:1 3:1 4:1 5:1 6:1 7:1 8:1 9:1 11:1 14:1 18:1 19:1 20:1 21:1 22:1 24:1 27:1 56:1 92:1 1624:1 #
0.046863830964287707392390558425177 1:1 3:1 4:1 5:1 6:1 7:1 8:1 9:1 11:1 14:1 18:1 19:1 20:1 21:1 22:1 24:1 27:1 92:1 109:1 1830:1 #
-0.046863830964287707392390558425177 1:1 3:1 4:1 5:1 6:1 7:1 8:1 9:1 11:1 14:1 18:1 19:1 20:1 21:1 22:1 24:1 27:1 62:1 92:1 109:1 170:1 642:1 #
-0.046863830964287707392390558425177 1:1 3:1 4:1 5:1 6:1 7:1 8:1 9:1 11:1 14:1 18:1 19:1 20:1 21:1 22:1 24:1 27:1 62:1 92:1 1114:1 #
-0.046863830964287707392390558425177 1:1 3:1 4:1 5:1 6:1 7:1 8:1 9:1 11:1 14:1 16:1 17:1 18:1 19:1 20:1 21:1 22:1 27:1 92:1 299:1 648:1 #
-0.046863830964287707392390558425177 1:1 3:1 4:1 5:1 6:1 7:1 8:1 9:1 11:1 14:1 16:1 18:1 19:1 20:1 21:1 22:1 24:1 27:1 92:1 642:1 #
-0.046863830964287707392390558425177 1:1 3:1 4:1 5:1 6:1 7:1 8:1 9:1 11:1 14:1 18:1 19:1 20:1 21:1 22:1 24:1 49:1 55:1 92:1 299:1 650:1 #
0.0024493706777071189151229191338643 1:1 2:1 3:1 4:1 5:1 6:1 7:1 8:1 9:1 11:1 15:1 18:1 19:1 20:1 21:1 26:1 102:1 209:1 230:1 1765:1 #
0.046863830964287707392390558425177 1:1 2:1 3:1 4:1 5:1 6:1 7:1 8:1 9:1 11:1 15:1 16:1 18:1 19:1 20:1 21:1 26:1 38:1 102:1 230:1 358:1 405:1 #
0.046863830964287707392390558425177 1:1 3:1 4:1 5:1 6:1 7:1 8:1 9:1 11:1 15:1 18:1 19:1 20:1 21:1 22:1 26:1 77:1 100:1 101:1 102:1 #
0.035995368331438820641565712321608 1:1 2:1 3:1 4:1 5:1 6:1 7:1 8:1 9:1 11:1 15:1 18:1 19:1 20:1 21:1 26:1 102:1 405:1 654:1 #
-0.046863830964287707392390558425177 1:1 3:1 4:1 5:1 6:1 7:1 8:1 9:1 11:1 12:1 15:1 18:1 19:1 20:1 21:1 22:1 26:1 102:1 405:1 1869:1 #
-0.016067589257445592798578815063593 1:1 3:1 4:1 5:1 6:1 7:1 8:1 9:1 11:1 16:1 18:1 19:1 20:1 21:1 22:1 24:1 26:1 27:1 28:1 182:1 1674:1 #
-0.046863830964287707392390558425177 1:1 2:1 3:1 4:1 5:1 6:1 7:1 8:1 9:1 11:1 18:1 19:1 20:1 21:1 26:1 27:1 37:1 38:1 102:1 108:1 358:1 #
-0.046863830964287707392390558425177 1:1 2:1 3:1 4:1 5:1 6:1 7:1 8:1 9:1 11:1 18:1 19:1 20:1 21:1 26:1 27:1 37:1 38:1 102:1 358:1 #
-0.046863830964287707392390558425177 1:1 2:1 3:1 4:1 5:1 6:1 7:1 8:1 9:1 11:1 18:1 19:1 20:1 21:1 26:1 27:1 37:1 38:1 62:1 102:1 358:1 #
0.046863830964287707392390558425177 1:1 3:1 4:1 5:1 6:1 7:1 8:1 9:1 11:1 14:1 16:1 18:1 19:1 20:1 21:1 22:1 24:1 55:1 77:1 92:1 174:1 299:1 444:1 1891:1 #
0.046863830964287707392390558425177 1:1 3:1 4:1 5:1 6:1 7:1 8:1 9:1 11:1 14:1 17:1 18:1 19:1 20:1 21:1 22:1 27:1 177:1 299:1 326:1 327:1 1786:1 #
0.046863830964287707392390558425177 1:1 3:1 4:1 5:1 6:1 7:1 8:1 9:1 11:1 14:1 18:1 19:1 20:1 21:1 22:1 24:1 27:1 62:1 92:1 240:1 1041:1 #
0.046863830964287707392390558425177 1:1 3:1 4:1 5:1 6:1 7:1 8:1 9:1 11:1 14:1 18:1 19:1 20:1 21:1 22:1 24:1 27:1 92:1 270:1 514:1 #
0.046863830964287707392390558425177 1:1 3:1 4:1 5:1 6:1 7:1 8:1 9:1 11:1 14:1 18:1 19:1 20:1 21:1 22:1 24:1 27:1 32:1 44:1 62:1 671:1 #
-0.046863830964287707392390558425177 1:1 3:1 4:1 5:1 6:1 7:1 8:1 9:1 11:1 18:1 19:1 20:1 21:1 22:1 26:1 27:1 102:1 144:1 936:1 #
-0.046863830964287707392390558425177 1:1 3:1 4:1 5:1 6:1 7:1 8:1 9:1 11:1 14:1 18:1 19:1 20:1 21:1 22:1 24:1 55:1 56:1 62:1 83:1 209:1 1684:1 #
-0.046863830964287707392390558425177 1:1 3:1 4:1 5:1 6:1 7:1 8:1 9:1 11:1 14:1 18:1 19:1 20:1 21:1 22:1 24:1 27:1 92:1 94:1 #
0.046863830964287707392390558425177 1:1 2:1 3:1 4:1 5:1 6:1 7:1 8:1 9:1 11:1 18:1 19:1 20:1 21:1 26:1 27:1 37:1 38:1 102:1 108:1 358:1 #
0.046863830964287707392390558425177 1:1 2:1 3:1 4:1 5:1 6:1 7:1 8:1 9:1 11:1 18:1 19:1 20:1 21:1 26:1 27:1 37:1 38:1 102:1 358:1 #
-0.046863830964287707392390558425177 1:1 3:1 4:1 5:1 6:1 7:1 8:1 9:1 11:1 14:1 17:1 18:1 19:1 20:1 21:1 22:1 27:1 177:1 230:1 326:1 628:1 #
-0.011297983487753786302487668535832 1:1 3:1 4:1 5:1 6:1 7:1 8:1 9:1 11:1 14:1 18:1 19:1 20:1 21:1 22:1 27:1 37:1 66:1 174:1 1448:1 1449:1 #
-0.046863830964287707392390558425177 1:1 3:1 4:1 5:1 6:1 7:1 8:1 9:1 11:1 14:1 18:1 19:1 20:1 21:1 22:1 24:1 43:1 55:1 56:1 62:1 186:1 737:1 #
-0.046863830964287707392390558425177 1:1 2:1 3:1 4:1 5:1 6:1 7:1 8:1 9:1 11:1 14:1 19:1 20:1 21:1 33:1 43:1 48:1 50:1 53:1 87:1 821:1 #
-0.046863830964287707392390558425177 1:1 3:1 4:1 5:1 6:1 7:1 8:1 9:1 11:1 14:1 18:1 19:1 20:1 21:1 22:1 27:1 56:1 83:1 182:1 568:1 569:1 #
0.046863830964287707392390558425177 1:1 3:1 4:1 5:1 6:1 7:1 8:1 9:1 11:1 12:1 18:1 19:1 20:1 21:1 22:1 24:1 26:1 37:1 55:1 62:1 174:1 309:1 537:1 #
0.046863830964287707392390558425177 1:1 3:1 4:1 5:1 6:1 7:1 8:1 9:1 11:1 15:1 18:1 19:1 20:1 21:1 22:1 24:1 26:1 62:1 77:1 170:1 1896:1 #
0.046863830964287707392390558425177 1:1 3:1 4:1 5:1 6:1 7:1 8:1 9:1 11:1 12:1 17:1 18:1 19:1 20:1 21:1 22:1 26:1 37:1 55:1 174:1 181:1 182:1 #
-0.040689061439860972624327217772588 1:1 3:1 4:1 5:1 6:1 7:1 8:1 9:1 11:1 14:1 18:1 19:1 20:1 21:1 22:1 24:1 27:1 28:1 29:1 30:1 566:1 1638:1 #
-0.046863830964287707392390558425177 1:1 2:1 3:1 4:1 5:1 6:1 7:1 8:1 11:1 14:1 18:1 19:1 20:1 21:1 24:1 55:1 62:1 121:1 153:1 259:1 446:1 #
-0.024355950863819482432592877785282 1:1 3:1 4:1 5:1 6:1 7:1 8:1 9:1 11:1 16:1 18:1 19:1 20:1 21:1 22:1 24:1 26:1 27:1 37:1 79:1 170:1 230:1 1023:1 #
-0.038291589359902705735905215078674 1:1 3:1 4:1 5:1 6:1 7:1 8:1 9:1 11:1 18:1 19:1 20:1 21:1 22:1 24:1 26:1 55:1 164:1 939:1 #
0.028716620006550463289896057972328 1:1 2:1 3:1 4:1 5:1 6:1 7:1 8:1 9:1 11:1 18:1 19:1 20:1 21:1 26:1 102:1 164:1 174:1 495:1 743:1 #
-0.029382915073735242639241249662518 1:1 3:1 4:1 5:1 6:1 7:1 8:1 9:1 11:1 12:1 13:1 14:1 17:1 18:1 19:1 20:1 21:1 22:1 55:1 62:1 174:1 1874:1 #
0.046863830964287707392390558425177 1:1 3:1 4:1 5:1 6:1 7:1 8:1 9:1 11:1 14:1 16:1 18:1 19:1 20:1 21:1 22:1 27:1 82:1 83:1 84:1 #
0.046863830964287707392390558425177 1:1 3:1 4:1 5:1 6:1 7:1 8:1 9:1 11:1 14:1 18:1 19:1 20:1 21:1 22:1 27:1 326:1 961:1 1805:1 #
0.046863830964287707392390558425177 1:1 3:1 4:1 5:1 6:1 7:1 8:1 9:1 11:1 14:1 18:1 19:1 20:1 21:1 22:1 27:1 83:1 102:1 109:1 593:1 594:1 #
0.046863830964287707392390558425177 1:1 3:1 4:1 5:1 6:1 7:1 8:1 9:1 11:1 14:1 17:1 18:1 19:1 20:1 21:1 22:1 27:1 237:1 326:1 811:1 #
0.046863830964287707392390558425177 1:1 3:1 4:1 5:1 6:1 7:1 8:1 9:1 11:1 14:1 17:1 18:1 19:1 20:1 21:1 22:1 27:1 210:1 211:1 #
-0.046863830964287707392390558425177 1:1 3:1 4:1 5:1 6:1 7:1 8:1 9:1 11:1 14:1 17:1 18:1 19:1 20:1 21:1 22:1 27:1 92:1 174:1 248:1 #
-0.046863830964287707392390558425177 1:1 3:1 4:1 5:1 6:1 7:1 8:1 9:1 11:1 17:1 18:1 19:1 20:1 21:1 22:1 27:1 36:1 45:1 92:1 648:1 #
-0.046863830964287707392390558425177 1:1 3:1 4:1 5:1 6:1 7:1 8:1 9:1 11:1 14:1 17:1 18:1 19:1 20:1 21:1 22:1 27:1 83:1 1857:1 #
-0.046863830964287707392390558425177 1:1 3:1 4:1 5:1 6:1 7:1 8:1 9:1 11:1 17:1 18:1 19:1 20:1 21:1 22:1 27:1 33:1 45:1 56:1 109:1 1922:1 1923:1 1924:1 #
-0.046863830964287707392390558425177 1:1 3:1 4:1 5:1 6:1 7:1 8:1 9:1 11:1 14:1 18:1 19:1 20:1 21:1 22:1 27:1 83:1 109:1 627:1 1323:1 #
0.046863830964287707392390558425177 1:1 2:1 3:1 4:1 5:1 6:1 7:1 8:1 9:1 11:1 18:1 19:1 20:1 21:1 24:1 26:1 55:1 259:1 886:1 #
0.046863830964287707392390558425177 1:1 3:1 4:1 5:1 6:1 7:1 8:1 9:1 11:1 14:1 18:1 19:1 20:1 21:1 22:1 24:1 43:1 55:1 62:1 186:1 339:1 1116:1 #
0.013350911822226769337662588554849 2:1 3:1 4:1 5:1 6:1 7:1 8:1 9:1 11:1 18:1 19:1 20:1 21:1 24:1 26:1 55:1 384:1 952:1 966:1 #
-0.038959198570028372166085262051638 1:1 3:1 4:1 5:1 6:1 7:1 8:1 9:1 11:1 18:1 19:1 20:1 21:1 22:1 24:1 26:1 27:1 32:1 134:1 619:1 #
0.046863830964287707392390558425177 1:1 2:1 3:1 4:1 5:1 6:1 7:1 8:1 9:1 11:1 18:1 19:1 20:1 21:1 24:1 26:1 77:1 96:1 301:1 #
0.015102733654016264885910914017586 1:1 2:1 3:1 4:1 5:1 6:1 7:1 8:1 9:1 11:1 18:1 19:1 20:1 21:1 26:1 55:1 62:1 102:1 164:1 639:1 #
0.046725380208004277382549673802714 1:1 4:1 5:1 6:1 7:1 8:1 9:1 11:1 13:1 18:1 19:1 20:1 21:1 22:1 24:1 27:1 45:1 66:1 109:1 126:1 317:1 1719:1 1720:1 #
-0.0065323718245094558598751177669328 1:1 3:1 4:1 5:1 6:1 7:1 8:1 9:1 11:1 18:1 19:1 20:1 21:1 22:1 26:1 27:1 38:1 62:1 102:1 419:1 #
0.046863830964287707392390558425177 1:1 4:1 5:1 6:1 7:1 8:1 9:1 11:1 17:1 18:1 19:1 20:1 21:1 22:1 26:1 50:1 62:1 126:1 164:1 289:1 631:1 1818:1 #
0.046863830964287707392390558425177 1:1 3:1 4:1 5:1 6:1 7:1 8:1 9:1 11:1 14:1 17:1 18:1 19:1 20:1 21:1 22:1 27:1 92:1 109:1 728:1 #
0.046863830964287707392390558425177 1:1 3:1 4:1 5:1 6:1 7:1 8:1 9:1 11:1 13:1 14:1 17:1 18:1 19:1 20:1 21:1 22:1 27:1 38:1 310:1 #
0.046863830964287707392390558425177 1:1 3:1 4:1 5:1 6:1 7:1 8:1 9:1 11:1 14:1 17:1 18:1 19:1 20:1 21:1 22:1 27:1 83:1 978:1 #
0.046863830964287707392390558425177 1:1 3:1 4:1 5:1 6:1 7:1 8:1 9:1 11:1 14:1 17:1 18:1 19:1 20:1 21:1 22:1 27:1 62:1 92:1 816:1 1494:1 #
0.046863830964287707392390558425177 1:1 3:1 4:1 5:1 6:1 7:1 8:1 9:1 11:1 14:1 16:1 17:1 18:1 19:1 20:1 21:1 22:1 27:1 446:1 1037:1 #
-0.046863830964287707392390558425177 1:1 3:1 4:1 5:1 6:1 7:1 8:1 9:1 11:1 13:1 14:1 17:1 18:1 19:1 20:1 21:1 22:1 27:1 38:1 62:1 174:1 182:1 1625:1 #
-0.046863830964287707392390558425177 1:1 3:1 4:1 5:1 6:1 7:1 8:1 9:1 11:1 14:1 17:1 18:1 19:1 20:1 21:1 22:1 27:1 29:1 66:1 1453:1 #
-0.046863830964287707392390558425177 1:1 3:1 4:1 5:1 6:1 7:1 8:1 9:1 11:1 14:1 17:1 18:1 19:1 20:1 21:1 22:1 27:1 43:1 118:1 119:1 122:1 124:1 #
-0.046863830964287707392390558425177 1:1 3:1 4:1 5:1 6:1 7:1 8:1 9:1 11:1 14:1 17:1 18:1 19:1 20:1 21:1 22:1 27:1 83:1 170:1 1864:1 #
0.046863830964287707392390558425177 1:1 4:1 5:1 6:1 7:1 8:1 11:1 15:1 16:1 18:1 19:1 20:1 21:1 22:1 24:1 26:1 118:1 126:1 128:1 153:1 258:1 925:1 947:1 948:1 #
0.046863830964287707392390558425177 1:1 3:1 4:1 5:1 6:1 7:1 8:1 9:1 11:1 16:1 17:1 18:1 19:1 20:1 21:1 22:1 26:1 55:1 164:1 851:1 #
0.046863830964287707392390558425177 1:1 4:1 6:1 7:1 8:1 9:1 11:1 18:1 19:1 20:1 21:1 22:1 26:1 55:1 62:1 102:1 126:1 133:1 221:1 222:1 223:1 224:1 225:1 226:1 #
0.046863830964287707392390558425177 1:1 3:1 4:1 5:1 6:1 7:1 8:1 9:1 11:1 14:1 16:1 18:1 19:1 20:1 21:1 22:1 24:1 55:1 92:1 173:1 1021:1 #
-0.046863830964287707392390558425177 1:1 4:1 5:1 6:1 7:1 8:1 9:1 11:1 14:1 18:1 19:1 20:1 21:1 22:1 50:1 62:1 102:1 126:1 146:1 164:1 174:1 289:1 290:1 396:1 #
-0.046863830964287707392390558425177 1:1 4:1 5:1 6:1 7:1 8:1 9:1 11:1 16:1 18:1 19:1 20:1 21:1 22:1 24:1 26:1 27:1 126:1 231:1 258:1 322:1 1660:1 #
-0.027883431423375435592726390154894 1:1 3:1 4:1 5:1 6:1 7:1 8:1 9:1 11:1 14:1 18:1 19:1 20:1 21:1 22:1 24:1 35:1 55:1 56:1 62:1 324:1 552:1 #
-0.046863830964287707392390558425177 1:1 3:1 4:1 5:1 6:1 7:1 8:1 9:1 11:1 14:1 17:1 18:1 19:1 20:1 21:1 22:1 55:1 77:1 92:1 101:1 104:1 #
-0.046863830964287707392390558425177 1:1 3:1 4:1 5:1 6:1 7:1 8:1 9:1 11:1 14:1 17:1 18:1 19:1 20:1 21:1 22:1 55:1 77:1 92:1 101:1 105:1 #
0.046863830964287707392390558425177 1:1 3:1 4:1 5:1 6:1 7:1 8:1 9:1 11:1 17:1 18:1 19:1 20:1 21:1 22:1 26:1 27:1 28:1 1707:1 #
0.046863830964287707392390558425177 1:1 3:1 4:1 5:1 6:1 7:1 8:1 9:1 11:1 17:1 18:1 19:1 20:1 21:1 22:1 26:1 27:1 138:1 215:1 #
0.046863830964287707392390558425177 1:1 3:1 4:1 5:1 6:1 7:1 8:1 9:1 11:1 17:1 18:1 19:1 20:1 21:1 22:1 27:1 45:1 62:1 83:1 170:1 174:1 566:1 658:1 #
-0.046863830964287707392390558425177 1:1 3:1 4:1 5:1 6:1 7:1 8:1 9:1 11:1 17:1 18:1 19:1 20:1 21:1 22:1 27:1 45:1 229:1 319:1 320:1 326:1 #
-0.0036441867733535519835452731740588 1:1 3:1 4:1 5:1 6:1 7:1 8:1 9:1 11:1 16:1 17:1 18:1 19:1 20:1 21:1 22:1 26:1 27:1 32:1 33:1 56:1 132:1 450:1 #
-0.046863830964287707392390558425177 1:1 3:1 4:1 5:1 6:1 7:1 8:1 9:1 11:1 18:1 19:1 20:1 21:1 22:1 27:1 45:1 56:1 62:1 83:1 324:1 627:1 1324:1 #
-0.046863830964287707392390558425177 1:1 3:1 4:1 5:1 6:1 7:1 8:1 9:1 11:1 14:1 18:1 19:1 20:1 21:1 22:1 27:1 102:1 324:1 798:1 #
0.046863830964287707392390558425177 1:1 3:1 4:1 5:1 6:1 7:1 8:1 9:1 11:1 14:1 18:1 19:1 20:1 21:1 22:1 24:1 49:1 55:1 83:1 199:1 200:1 #
0.046863830964287707392390558425177 1:1 3:1 4:1 5:1 6:1 7:1 8:1 9:1 11:1 14:1 18:1 19:1 20:1 21:1 22:1 49:1 55:1 92:1 154:1 155:1 #
0.046863830964287707392390558425177 1:1 3:1 4:1 5:1 6:1 7:1 8:1 9:1 11:1 14:1 17:1 18:1 19:1 20:1 21:1 22:1 55:1 62:1 146:1 164:1 1755:1 #
0.046863830964287707392390558425177 1:1 3:1 4:1 5:1 6:1 7:1 8:1 9:1 11:1 14:1 16:1 18:1 19:1 20:1 21:1 22:1 24:1 55:1 92:1 191:1 276:1 #
0.046863830964287707392390558425177 1:1 4:1 5:1 6:1 7:1 8:1 9:1 11:1 14:1 18:1 19:1 20:1 21:1 22:1 24:1 49:1 50:1 77:1 126:1 129:1 150:1 318:1 652:1 653:1 #
-0.046037733790607895945079519606224 1:1 3:1 4:1 5:1 6:1 7:1 8:1 9:1 11:1 14:1 15:1 17:1 18:1 19:1 20:1 21:1 22:1 49:1 225:1 326:1 1735:1 #
-0.046863830964287707392390558425177 1:1 3:1 4:1 5:1 6:1 7:1 8:1 9:1 11:1 14:1 17:1 18:1 19:1 20:1 21:1 22:1 55:1 62:1 123:1 259:1 446:1 #
-0.046863830964287707392390558425177 1:1 3:1 4:1 5:1 6:1 7:1 8:1 9:1 11:1 14:1 18:1 19:1 20:1 21:1 22:1 44:1 46:1 48:1 55:1 62:1 676:1 #
-0.046863830964287707392390558425177 1:1 3:1 4:1 5:1 6:1 7:1 8:1 9:1 11:1 14:1 17:1 18:1 19:1 20:1 21:1 22:1 49:1 55:1 92:1 299:1 645:1 #
0.046863830964287707392390558425177 1:1 3:1 4:1 5:1 6:1 7:1 8:1 9:1 11:1 18:1 19:1 20:1 21:1 22:1 24:1 27:1 43:1 115:1 117:1 324:1 1648:1 #
0.046863830964287707392390558425177 1:1 4:1 5:1 6:1 7:1 8:1 9:1 11:1 14:1 18:1 19:1 20:1 21:1 22:1 24:1 27:1 43:1 52:1 126:1 170:1 774:1 1355:1 1356:1 #
0.046863830964287707392390558425177 1:1 3:1 4:1 5:1 6:1 7:1 8:1 9:1 11:1 14:1 18:1 19:1 20:1 21:1 22:1 27:1 83:1 260:1 627:1 1666:1 #
0.046863830964287707392390558425177 1:1 4:1 5:1 6:1 7:1 8:1 9:1 11:1 14:1 18:1 19:1 20:1 21:1 22:1 24:1 27:1 43:1 52:1 126:1 774:1 1355:1 1356:1 #
-0.046863830964287707392390558425177 1:1 3:1 4:1 5:1 6:1 7:1 8:1 9:1 11:1 14:1 18:1 19:1 20:1 21:1 22:1 24:1 27:1 43:1 52:1 62:1 1517:1 #
-0.046863830964287707392390558425177 1:1 3:1 4:1 5:1 6:1 7:1 8:1 9:1 11:1 18:1 19:1 20:1 21:1 22:1 24:1 27:1 45:1 92:1 623:1 1597:1 #
-0.046863830964287707392390558425177 1:1 3:1 4:1 5:1 6:1 7:1 8:1 9:1 11:1 18:1 19:1 20:1 21:1 22:1 24:1 27:1 62:1 92:1 117:1 623:1 1596:1 #
-0.046863830964287707392390558425177 1:1 3:1 4:1 5:1 6:1 7:1 8:1 9:1 11:1 14:1 18:1 19:1 20:1 21:1 22:1 24:1 27:1 92:1 144:1 274:1 #
-0.046863830964287707392390558425177 1:1 3:1 4:1 5:1 6:1 7:1 8:1 9:1 11:1 14:1 18:1 19:1 20:1 21:1 22:1 24:1 27:1 36:1 79:1 170:1 604:1 1200:1 #
0.046863830964287707392390558425177 1:1 3:1 4:1 5:1 6:1 7:1 8:1 9:1 11:1 14:1 17:1 18:1 19:1 20:1 21:1 22:1 44:1 48:1 55:1 764:1 #
0.046863830964287707392390558425177 1:1 3:1 4:1 5:1 6:1 7:1 8:1 9:1 11:1 14:1 17:1 18:1 19:1 20:1 21:1 22:1 55:1 62:1 146:1 164:1 1731:1 #
0.046863830964287707392390558425177 1:1 3:1 4:1 5:1 6:1 7:1 8:1 9:1 11:1 17:1 18:1 19:1 20:1 21:1 22:1 26:1 49:1 50:1 123:1 259:1 #
0.046863830964287707392390558425177 1:1 3:1 4:1 5:1 6:1 7:1 8:1 9:1 11:1 14:1 16:1 18:1 19:1 20:1 21:1 22:1 55:1 92:1 102:1 173:1 1780:1 #
-0.046863830964287707392390558425177 1:1 3:1 4:1 5:1 6:1 7:1 8:1 9:1 11:1 14:1 17:1 18:1 19:1 20:1 21:1 22:1 43:1 55:1 186:1 337:1 #
-0.046863830964287707392390558425177 1:1 3:1 4:1 5:1 6:1 7:1 8:1 9:1 11:1 14:1 17:1 18:1 19:1 20:1 21:1 22:1 43:1 55:1 186:1 1518:1 #
-0.046863830964287707392390558425177 1:1 3:1 4:1 5:1 6:1 7:1 8:1 9:1 11:1 14:1 17:1 18:1 19:1 20:1 21:1 22:1 43:1 55:1 62:1 186:1 368:1 #
-0.027851720569359361689976140041836 1:1 3:1 4:1 5:1 6:1 7:1 8:1 9:1 11:1 14:1 18:1 19:1 20:1 21:1 22:1 28:1 55:1 102:1 209:1 566:1 894:1 #
-0.032558597236918895845292354351841 1:1 3:1 4:1 5:1 6:1 7:1 8:1 9:1 11:1 14:1 17:1 18:1 19:1 20:1 21:1 22:1 28:1 55:1 209:1 566:1 898:1 #
0.046863830964287707392390558425177 1:1 3:1 4:1 5:1 6:1 7:1 8:1 9:1 11:1 14:1 18:1 19:1 20:1 21:1 22:1 24:1 27:1 62:1 86:1 146:1 238:1 #
0.046863830964287707392390558425177 1:1 3:1 4:1 5:1 6:1 7:1 8:1 9:1 11:1 14:1 18:1 19:1 20:1 21:1 22:1 27:1 62:1 92:1 157:1 159:1 #
0.046863830964287707392390558425177 1:1 3:1 4:1 5:1 6:1 7:1 8:1 9:1 11:1 18:1 19:1 20:1 21:1 22:1 24:1 27:1 92:1 146:1 324:1 465:1 623:1 720:1 #
0.046863830964287707392390558425177 1:1 3:1 4:1 5:1 6:1 7:1 8:1 9:1 11:1 14:1 18:1 19:1 20:1 21:1 22:1 27:1 56:1 62:1 83:1 174:1 1237:1 1238:1 #
-0.046863830964287707392390558425177 1:1 3:1 4:1 5:1 6:1 7:1 8:1 9:1 11:1 14:1 18:1 19:1 20:1 21:1 22:1 27:1 56:1 62:1 83:1 174:1 647:1 1231:1 #
-0.046863830964287707392390558425177 1:1 3:1 4:1 5:1 6:1 7:1 8:1 9:1 11:1 14:1 18:1 19:1 20:1 21:1 22:1 27:1 56:1 62:1 83:1 174:1 647:1 1250:1 #
-0.046863830964287707392390558425177 1:1 2:1 3:1 4:1 5:1 6:1 7:1 8:1 9:1 11:1 18:1 19:1 20:1 21:1 24:1 26:1 50:1 62:1 77:1 245:1 #
0.018229187561450699295306776548387 1:1 4:1 5:1 6:1 7:1 8:1 9:1 11:1 14:1 17:1 18:1 19:1 20:1 21:1 22:1 27:1 62:1 126:1 226:1 229:1 315:1 316:1 317:1 318:1 319:1 #
0.046863830964287707392390558425177 1:1 3:1 4:1 5:1 6:1 7:1 8:1 9:1 11:1 14:1 18:1 19:1 20:1 21:1 22:1 43:1 55:1 62:1 102:1 186:1 244:1 #
-0.046863830964287707392390558425177 1:1 3:1 4:1 5:1 6:1 7:1 8:1 9:1 11:1 14:1 18:1 19:1 20:1 21:1 22:1 27:1 102:1 324:1 798:1 #
-0.046863830964287707392390558425177 1:1 3:1 4:1 5:1 6:1 7:1 8:1 9:1 11:1 13:1 15:1 16:1 18:1 19:1 20:1 21:1 22:1 24:1 66:1 324:1 405:1 465:1 1273:1 #
-0.046863830964287707392390558425177 1:1 3:1 4:1 5:1 6:1 7:1 8:1 9:1 11:1 14:1 18:1 19:1 20:1 21:1 22:1 24:1 27:1 32:1 44:1 62:1 673:1 #
0.046863830964287707392390558425177 1:1 3:1 4:1 5:1 6:1 7:1 8:1 9:1 11:1 14:1 15:1 18:1 19:1 20:1 21:1 22:1 24:1 35:1 83:1 208:1 209:1 #
0.046863830964287707392390558425177 1:1 3:1 4:1 5:1 6:1 7:1 8:1 9:1 11:1 13:1 17:1 18:1 19:1 20:1 21:1 22:1 27:1 38:1 45:1 62:1 174:1 566:1 1645:1 #
0.046863830964287707392390558425177 1:1 3:1 4:1 5:1 6:1 7:1 8:1 9:1 11:1 14:1 17:1 18:1 19:1 20:1 21:1 22:1 27:1 37:1 66:1 182:1 1641:1 #
-0.046863830964287707392390558425177 1:1 3:1 4:1 5:1 6:1 7:1 8:1 9:1 11:1 13:1 14:1 17:1 18:1 19:1 20:1 21:1 22:1 27:1 38:1 62:1 174:1 182:1 1625:1 #
-0.015657363661428225221072807471501 1:1 3:1 4:1 5:1 6:1 7:1 8:1 9:1 11:1 14:1 15:1 17:1 18:1 19:1 20:1 21:1 22:1 49:1 225:1 326:1 1735:1 #
-0.046863830964287707392390558425177 1:1 3:1 4:1 5:1 6:1 7:1 8:1 9:1 11:1 14:1 18:1 19:1 20:1 21:1 22:1 27:1 83:1 627:1 1240:1 #
-0.046863830964287707392390558425177 1:1 3:1 4:1 5:1 6:1 7:1 8:1 9:1 11:1 14:1 18:1 19:1 20:1 21:1 22:1 27:1 326:1 1806:1 1807:1 #
-0.04111345183818748694193345727399 1:1 3:1 4:1 5:1 6:1 7:1 8:1 9:1 11:1 14:1 18:1 19:1 20:1 21:1 22:1 27:1 155:1 326:1 445:1 1907:1 #
0.046863830964287707392390558425177 1:1 3:1 4:1 5:1 6:1 7:1 8:1 9:1 11:1 14:1 16:1 18:1 19:1 20:1 21:1 22:1 24:1 27:1 170:1 446:1 885:1 #
0.046863830964287707392390558425177 1:1 3:1 4:1 5:1 6:1 7:1 8:1 9:1 11:1 18:1 19:1 20:1 21:1 22:1 24:1 27:1 43:1 44:1 45:1 51:1 56:1 207:1 #
0.046863830964287707392390558425177 1:1 3:1 4:1 5:1 6:1 7:1 8:1 9:1 11:1 14:1 18:1 19:1 20:1 21:1 22:1 27:1 102:1 133:1 240:1 324:1 1733:1 #
0.046863830964287707392390558425177 1:1 3:1 4:1 5:1 6:1 7:1 8:1 9:1 11:1 14:1 17:1 18:1 19:1 20:1 21:1 22:1 27:1 32:1 44:1 342:1 #
0.046863830964287707392390558425177 1:1 3:1 4:1 5:1 6:1 7:1 8:1 9:1 11:1 18:1 19:1 20:1 21:1 22:1 24:1 27:1 43:1 44:1 45:1 56:1 311:1 #
-0.046863830964287707392390558425177 1:1 4:1 5:1 6:1 7:1 8:1 9:1 11:1 18:1 19:1 20:1 21:1 22:1 24:1 26:1 49:1 52:1 55:1 56:1 57:1 86:1 126:1 734:1 1085:1 1173:1 #
-0.046863830964287707392390558425177 1:1 3:1 4:1 5:1 6:1 7:1 8:1 9:1 11:1 13:1 18:1 19:1 20:1 21:1 22:1 24:1 27:1 45:1 66:1 174:1 182:1 1469:1 #
0.046863830964287707392390558425177 1:1 3:1 4:1 5:1 6:1 7:1 8:1 9:1 11:1 13:1 14:1 18:1 19:1 20:1 21:1 22:1 27:1 38:1 62:1 102:1 174:1 182:1 1625:1 #
0.046863830964287707392390558425177 1:1 3:1 4:1 5:1 6:1 7:1 8:1 9:1 11:1 14:1 18:1 19:1 20:1 21:1 22:1 27:1 62:1 83:1 627:1 713:1 #
0.046863830964287707392390558425177 1:1 3:1 4:1 5:1 6:1 7:1 8:1 9:1 11:1 13:1 14:1 18:1 19:1 20:1 21:1 22:1 27:1 38:1 102:1 1911:1 #
0.046863830964287707392390558425177 1:1 3:1 4:1 5:1 6:1 7:1 8:1 9:1 11:1 14:1 18:1 19:1 20:1 21:1 22:1 27:1 83:1 174:1 182:1 1091:1 1092:1 #
-0.046863830964287707392390558425177 1:1 3:1 4:1 5:1 6:1 7:1 8:1 9:1 11:1 14:1 18:1 19:1 20:1 21:1 22:1 27:1 102:1 324:1 798:1 #
-0.046863830964287707392390558425177 1:1 3:1 4:1 5:1 6:1 7:1 8:1 9:1 11:1 14:1 18:1 19:1 20:1 21:1 22:1 24:1 27:1 62:1 83:1 109:1 170:1 1684:1 #
-0.046863830964287707392390558425177 1:1 3:1 4:1 5:1 6:1 7:1 8:1 9:1 11:1 14:1 18:1 19:1 20:1 21:1 22:1 27:1 83:1 647:1 1239:1 #
-0.046863830964287707392390558425177 1:1 3:1 4:1 5:1 6:1 7:1 8:1 9:1 11:1 14:1 18:1 19:1 20:1 21:1 22:1 27:1 83:1 627:1 1323:1 #
-0.046863830964287707392390558425177 1:1 3:1 4:1 5:1 6:1 7:1 8:1 9:1 11:1 14:1 18:1 19:1 20:1 21:1 22:1 27:1 83:1 647:1 1240:1 #
0.046863830964287707392390558425177 1:1 3:1 4:1 5:1 6:1 7:1 8:1 9:1 11:1 15:1 17:1 18:1 19:1 20:1 21:1 22:1 26:1 259:1 1352:1 #
0.046863830964287707392390558425177 1:1 3:1 4:1 5:1 6:1 7:1 8:1 9:1 11:1 17:1 18:1 19:1 20:1 21:1 22:1 26:1 27:1 39:1 978:1 #
0.046863830964287707392390558425177 1:1 3:1 4:1 5:1 6:1 7:1 8:1 9:1 11:1 17:1 18:1 19:1 20:1 21:1 22:1 26:1 27:1 144:1 798:1 #
0.046863830964287707392390558425177 1:1 3:1 4:1 5:1 6:1 7:1 8:1 9:1 11:1 17:1 18:1 19:1 20:1 21:1 22:1 26:1 27:1 798:1 #
0.046863830964287707392390558425177 1:1 4:1 5:1 6:1 7:1 8:1 9:1 11:1 16:1 17:1 18:1 19:1 20:1 21:1 22:1 26:1 27:1 126:1 174:1 226:1 263:1 318:1 440:1 445:1 1399:1 #
0.046863830964287707392390558425177 1:1 3:1 4:1 5:1 6:1 7:1 8:1 9:1 11:1 14:1 18:1 19:1 20:1 21:1 22:1 24:1 27:1 83:1 170:1 174:1 553:1 #
0.046863830964287707392390558425177 1:1 3:1 4:1 5:1 6:1 7:1 8:1 9:1 11:1 14:1 18:1 19:1 20:1 21:1 22:1 24:1 27:1 83:1 1756:1 #
0.046863830964287707392390558425177 1:1 3:1 4:1 5:1 6:1 7:1 8:1 9:1 11:1 14:1 18:1 19:1 20:1 21:1 22:1 24:1 27:1 83:1 1856:1 #
-0.042031280206872981275445511073485 1:1 3:1 4:1 5:1 6:1 7:1 8:1 9:1 11:1 14:1 18:1 19:1 20:1 21:1 22:1 24:1 27:1 38:1 39:1 566:1 1634:1 #
-0.046863830964287707392390558425177 1:1 3:1 4:1 5:1 6:1 7:1 8:1 9:1 11:1 14:1 18:1 19:1 20:1 21:1 22:1 24:1 27:1 92:1 94:1 #
-0.046863830964287707392390558425177 1:1 3:1 4:1 5:1 6:1 7:1 8:1 9:1 11:1 14:1 18:1 19:1 20:1 21:1 22:1 24:1 43:1 55:1 62:1 186:1 1357:1 #
0.043996122691153646822037615038425 1:1 4:1 5:1 6:1 7:1 8:1 9:1 11:1 14:1 17:1 18:1 19:1 20:1 21:1 22:1 27:1 116:1 126:1 127:1 128:1 129:1 #
0.046863830964287707392390558425177 1:1 2:1 3:1 4:1 5:1 6:1 7:1 8:1 9:1 11:1 14:1 18:1 19:1 20:1 21:1 55:1 62:1 225:1 326:1 647:1 1105:1 #
0.046863830964287707392390558425177 1:1 3:1 4:1 5:1 6:1 7:1 8:1 9:1 11:1 14:1 18:1 19:1 20:1 21:1 22:1 24:1 27:1 37:1 66:1 174:1 182:1 1447:1 #
0.046863830964287707392390558425177 1:1 3:1 4:1 5:1 6:1 7:1 8:1 9:1 11:1 14:1 18:1 19:1 20:1 21:1 22:1 27:1 84:1 92:1 1548:1 #
-0.046863830964287707392390558425177 1:1 3:1 4:1 5:1 6:1 7:1 8:1 9:1 11:1 14:1 18:1 19:1 20:1 21:1 22:1 24:1 27:1 66:1 174:1 1453:1 #
-0.046863830964287707392390558425177 1:1 3:1 4:1 5:1 6:1 7:1 8:1 9:1 11:1 14:1 18:1 19:1 20:1 21:1 22:1 24:1 27:1 92:1 94:1 #
0.046863830964287707392390558425177 1:1 2:1 3:1 4:1 5:1 6:1 7:1 8:1 9:1 11:1 14:1 18:1 19:1 20:1 21:1 24:1 27:1 174:1 177:1 299:1 326:1 504:1 #
-0.046863830964287707392390558425177 1:1 3:1 4:1 5:1 6:1 7:1 8:1 9:1 11:1 14:1 18:1 19:1 20:1 21:1 22:1 27:1 44:1 46:1 57:1 675:1 #
0.046863830964287707392390558425177 1:1 3:1 4:1 5:1 6:1 7:1 8:1 9:1 11:1 14:1 18:1 19:1 20:1 21:1 22:1 24:1 27:1 83:1 1756:1 #
-0.046863830964287707392390558425177 1:1 3:1 4:1 5:1 6:1 7:1 8:1 9:1 11:1 12:1 13:1 14:1 15:1 18:1 19:1 20:1 21:1 22:1 24:1 62:1 65:1 #
-0.046863830964287707392390558425177 1:1 3:1 4:1 5:1 6:1 7:1 8:1 9:1 11:1 12:1 13:1 14:1 15:1 18:1 19:1 20:1 21:1 22:1 24:1 62:1 74:1 #
-0.046863830964287707392390558425177 1:1 3:1 4:1 5:1 6:1 7:1 8:1 9:1 11:1 14:1 18:1 19:1 20:1 21:1 22:1 24:1 35:1 55:1 62:1 150:1 174:1 559:1 #
0.046863830964287707392390558425177 1:1 3:1 4:1 5:1 6:1 7:1 8:1 9:1 11:1 14:1 18:1 19:1 20:1 21:1 22:1 24:1 27:1 83:1 174:1 723:1 #
0.046863830964287707392390558425177 1:1 4:1 5:1 6:1 8:1 9:1 11:1 14:1 15:1 18:1 19:1 20:1 21:1 22:1 24:1 43:1 48:1 51:1 62:1 126:1 186:1 263:1 364:1 733:1 734:1 #
0.046863830964287707392390558425177 1:1 4:1 5:1 6:1 7:1 8:1 9:1 11:1 14:1 15:1 18:1 19:1 20:1 21:1 22:1 24:1 43:1 49:1 126:1 186:1 441:1 1689:1 1690:1 #
-0.042043895618346642517604294653211 1:1 3:1 4:1 5:1 6:1 7:1 8:1 9:1 11:1 14:1 18:1 19:1 20:1 21:1 22:1 27:1 326:1 877:1 1801:1 #
-0.031458178237660741616288362365594 1:1 3:1 4:1 5:1 6:1 7:1 8:1 9:1 11:1 18:1 19:1 20:1 21:1 22:1 26:1 27:1 102:1 174:1 1568:1 #
0.046863830964287707392390558425177 1:1 2:1 3:1 4:1 5:1 6:1 7:1 8:1 9:1 14:1 18:1 19:1 20:1 21:1 55:1 79:1 102:1 137:1 209:1 324:1 727:1 #
0.046863830964287707392390558425177 1:1 3:1 4:1 5:1 6:1 7:1 8:1 9:1 11:1 17:1 18:1 19:1 20:1 21:1 22:1 27:1 32:1 45:1 62:1 115:1 116:1 119:1 120:1 #
-0.0087980623822656207899672864414242 1:1 3:1 4:1 5:1 6:1 7:1 8:1 9:1 11:1 14:1 17:1 18:1 19:1 20:1 21:1 22:1 55:1 77:1 92:1 101:1 104:1 #
-0.0088803157219892736584654358011903 1:1 3:1 4:1 5:1 6:1 7:1 8:1 9:1 11:1 14:1 17:1 18:1 19:1 20:1 21:1 22:1 55:1 77:1 92:1 101:1 105:1 #
-0.044999366138693423777805691088361 1:1 3:1 4:1 5:1 6:1 7:1 8:1 9:1 11:1 14:1 18:1 19:1 20:1 21:1 22:1 24:1 43:1 55:1 62:1 186:1 1357:1 #
-0.031449393784826168429802351056424 1:1 3:1 4:1 5:1 6:1 7:1 8:1 9:1 11:1 14:1 18:1 19:1 20:1 21:1 22:1 27:1 43:1 46:1 52:1 62:1 735:1 #
0.046863830964287707392390558425177 1:1 3:1 4:1 5:1 6:1 7:1 8:1 9:1 11:1 14:1 18:1 19:1 20:1 21:1 22:1 24:1 27:1 83:1 658:1 #
0.046863830964287707392390558425177 1:1 3:1 4:1 5:1 6:1 7:1 8:1 9:1 11:1 14:1 18:1 19:1 20:1 21:1 22:1 27:1 62:1 82:1 83:1 84:1 #
0.046863830964287707392390558425177 1:1 3:1 4:1 5:1 6:1 7:1 8:1 9:1 11:1 14:1 17:1 18:1 19:1 20:1 21:1 22:1 27:1 92:1 270:1 1557:1 #
-0.046863830964287707392390558425177 1:1 3:1 4:1 5:1 6:1 7:1 8:1 9:1 11:1 14:1 18:1 19:1 20:1 21:1 22:1 27:1 56:1 62:1 83:1 174:1 627:1 1324:1 #
-0.028747143152531580423403312352093 1:1 3:1 4:1 5:1 6:1 7:1 8:1 9:1 11:1 18:1 19:1 20:1 21:1 22:1 26:1 27:1 62:1 102:1 174:1 424:1 #
-0.0020802660179284893082751750625903 1:1 3:1 4:1 5:1 6:1 7:1 8:1 9:1 11:1 17:1 18:1 19:1 20:1 21:1 22:1 26:1 55:1 164:1 928:1 #
0.046863830964287707392390558425177 1:1 2:1 3:1 4:1 5:1 6:1 7:1 8:1 9:1 11:1 14:1 15:1 18:1 19:1 20:1 21:1 62:1 66:1 174:1 405:1 647:1 1287:1 #
0.046863830964287707392390558425177 1:1 3:1 4:1 5:1 6:1 7:1 8:1 9:1 11:1 18:1 19:1 20:1 21:1 22:1 26:1 27:1 62:1 101:1 102:1 109:1 144:1 594:1 1921:1 #
0.046863830964287707392390558425177 1:1 3:1 4:1 5:1 6:1 7:1 8:1 9:1 11:1 15:1 18:1 19:1 20:1 21:1 22:1 26:1 87:1 164:1 392:1 #
0.046863830964287707392390558425177 1:1 2:1 3:1 4:1 5:1 6:1 7:1 8:1 9:1 11:1 18:1 19:1 20:1 21:1 37:1 45:1 55:1 66:1 209:1 566:1 627:1 1079:1 #
-0.021662352065922207966508494791924 1:1 3:1 4:1 5:1 6:1 7:1 8:1 9:1 11:1 18:1 19:1 20:1 21:1 22:1 24:1 26:1 55:1 109:1 299:1 345:1 1842:1 #
-0.046863830964287707392390558425177 1:1 3:1 4:1 5:1 6:1 7:1 8:1 9:1 11:1 18:1 19:1 20:1 21:1 22:1 24:1 27:1 45:1 62:1 229:1 326:1 1219:1 #
-0.044814488491414970761095304396804 1:1 3:1 4:1 5:1 6:1 7:1 8:1 9:1 11:1 17:1 18:1 19:1 20:1 21:1 22:1 26:1 27:1 30:1 62:1 183:1 #
0.046863830964287707392390558425177 1:1 4:1 5:1 6:1 7:1 8:1 9:1 11:1 14:1 17:1 18:1 19:1 20:1 21:1 22:1 27:1 62:1 126:1 177:1 322:1 326:1 1085:1 1657:1 #
0.046863830964287707392390558425177 1:1 3:1 4:1 5:1 6:1 7:1 8:1 9:1 11:1 17:1 18:1 19:1 20:1 21:1 22:1 26:1 27:1 29:1 38:1 1625:1 #
0.046863830964287707392390558425177 1:1 3:1 4:1 5:1 6:1 7:1 8:1 9:1 11:1 14:1 17:1 18:1 19:1 20:1 21:1 22:1 27:1 146:1 851:1 #
-0.013888768890326530502932200761279 1:1 3:1 4:1 5:1 6:1 7:1 8:1 9:1 11:1 14:1 18:1 19:1 20:1 21:1 22:1 27:1 177:1 326:1 961:1 1808:1 #
-0.046863830964287707392390558425177 1:1 3:1 4:1 5:1 6:1 7:1 8:1 9:1 11:1 14:1 17:1 18:1 19:1 20:1 21:1 22:1 27:1 28:1 29:1 566:1 1626:1 #
-0.021986901431555599950584678481391 1:1 3:1 4:1 5:1 6:1 7:1 8:1 9:1 11:1 14:1 17:1 18:1 19:1 20:1 21:1 22:1 27:1 237:1 299:1 319:1 320:1 326:1 #
0.046863830964287707392390558425177 1:1 2:1 3:1 4:1 5:1 6:1 7:1 8:1 9:1 11:1 17:1 18:1 19:1 20:1 21:1 26:1 27:1 62:1 109:1 226:1 665:1 #
0.046863830964287707392390558425177 1:1 2:1 3:1 4:1 5:1 6:1 7:1 8:1 9:1 11:1 14:1 18:1 19:1 20:1 21:1 24:1 27:1 62:1 138:1 174:1 326:1 504:1 #
0.046863830964287707392390558425177 1:1 3:1 4:1 5:1 6:1 7:1 8:1 9:1 11:1 18:1 19:1 20:1 21:1 22:1 24:1 27:1 43:1 44:1 45:1 337:1 #
0.046863830964287707392390558425177 1:1 3:1 4:1 5:1 6:1 7:1 8:1 9:1 11:1 18:1 19:1 20:1 21:1 22:1 24:1 27:1 43:1 44:1 45:1 810:1 #
-0.046863830964287707392390558425177 1:1 3:1 4:1 5:1 6:1 7:1 8:1 9:1 11:1 13:1 18:1 19:1 20:1 21:1 22:1 23:1 24:1 27:1 45:1 66:1 #
-0.046863830964287707392390558425177 1:1 3:1 4:1 5:1 6:1 7:1 8:1 9:1 11:1 18:1 19:1 20:1 21:1 22:1 24:1 27:1 45:1 62:1 229:1 319:1 326:1 1219:1 #
0.046863830964287707392390558425177 1:1 3:1 4:1 5:1 6:1 7:1 8:1 9:1 11:1 14:1 17:1 18:1 19:1 20:1 21:1 22:1 50:1 146:1 164:1 850:1 #
0.046863830964287707392390558425177 1:1 3:1 4:1 5:1 6:1 7:1 8:1 9:1 11:1 17:1 18:1 19:1 20:1 21:1 22:1 26:1 27:1 28:1 978:1 #
-0.046863830964287707392390558425177 1:1 4:1 5:1 6:1 7:1 8:1 9:1 11:1 18:1 19:1 20:1 21:1 22:1 26:1 27:1 126:1 138:1 157:1 233:1 234:1 235:1 #
-0.0061075345836587510706117143399752 1:1 3:1 4:1 5:1 6:1 7:1 8:1 9:1 11:1 16:1 17:1 18:1 19:1 20:1 21:1 22:1 26:1 27:1 37:1 38:1 611:1 1196:1 #
0.046863830964287707392390558425177 1:1 3:1 4:1 5:1 6:1 7:1 8:1 9:1 11:1 18:1 19:1 20:1 21:1 22:1 26:1 27:1 29:1 38:1 62:1 102:1 174:1 397:1 #
0.046863830964287707392390558425177 1:1 4:1 5:1 6:1 7:1 8:1 9:1 11:1 14:1 18:1 19:1 20:1 21:1 22:1 24:1 27:1 37:1 62:1 66:1 126:1 140:1 141:1 142:1 #
0.046863830964287707392390558425177 1:1 3:1 4:1 5:1 6:1 7:1 8:1 9:1 11:1 14:1 18:1 19:1 20:1 21:1 22:1 27:1 83:1 102:1 1075:1 #
0.046863830964287707392390558425177 1:1 3:1 4:1 5:1 6:1 7:1 8:1 9:1 11:1 14:1 18:1 19:1 20:1 21:1 22:1 27:1 83:1 102:1 1618:1 #
-0.046863830964287707392390558425177 1:1 2:1 3:1 4:1 5:1 6:1 7:1 8:1 11:1 14:1 15:1 18:1 19:1 20:1 21:1 24:1 49:1 121:1 153:1 259:1 446:1 #
-0.015802623388957354189088277962583 1:1 3:1 4:1 5:1 6:1 7:1 8:1 9:1 11:1 18:1 19:1 20:1 21:1 22:1 24:1 27:1 36:1 39:1 117:1 324:1 566:1 1380:1 #
-0.046863830964287707392390558425177 1:1 4:1 5:1 6:1 7:1 8:1 9:1 14:1 18:1 19:1 20:1 21:1 22:1 27:1 102:1 126:1 137:1 177:1 211:1 234:1 508:1 509:1 #
-0.046863830964287707392390558425177 1:1 4:1 5:1 6:1 7:1 8:1 9:1 11:1 18:1 19:1 20:1 21:1 22:1 24:1 26:1 27:1 37:1 38:1 39:1 109:1 126:1 141:1 774:1 1749:1 #
0.046863830964287707392390558425177 1:1 2:1 3:1 4:1 5:1 6:1 7:1 8:1 9:1 11:1 13:1 14:1 18:1 19:1 20:1 21:1 27:1 38:1 102:1 358:1 #
0.046863830964287707392390558425177 1:1 2:1 3:1 4:1 5:1 6:1 7:1 8:1 9:1 11:1 14:1 18:1 19:1 20:1 21:1 27:1 177:1 326:1 626:1 627:1 #
-0.0083487657285895317677004712209055 1:1 3:1 4:1 5:1 6:1 7:1 8:1 9:1 11:1 14:1 17:1 18:1 19:1 20:1 21:1 22:1 27:1 62:1 213:1 229:1 231:1 299:1 685:1 #
-0.0057168316784682038367293444025563 1:1 3:1 4:1 5:1 6:1 7:1 8:1 9:1 11:1 17:1 18:1 19:1 20:1 21:1 22:1 26:1 27:1 37:1 109:1 1766:1 #
-0.038189076345058026173973075856338 1:1 2:1 3:1 4:1 5:1 6:1 8:1 9:1 11:1 19:1 20:1 43:1 45:1 48:1 50:1 53:1 125:1 186:1 362:1 364:1 584:1 #
-0.046863830964287707392390558425177 1:1 2:1 3:1 4:1 5:1 6:1 7:1 8:1 9:1 11:1 18:1 19:1 20:1 21:1 26:1 27:1 37:1 38:1 102:1 358:1 594:1 #
0.046863830964287707392390558425177 1:1 4:1 5:1 7:1 8:1 9:1 11:1 14:1 18:1 19:1 20:1 21:1 22:1 24:1 55:1 62:1 69:1 126:1 177:1 316:1 343:1 344:1 345:1 346:1 #
-0.046863830964287707392390558425177 1:1 2:1 3:1 4:1 5:1 6:1 7:1 8:1 9:1 11:1 18:1 19:1 20:1 21:1 26:1 27:1 37:1 38:1 102:1 358:1 594:1 #
-0.046863830964287707392390558425177 1:1 2:1 3:1 4:1 5:1 6:1 7:1 8:1 9:1 11:1 18:1 19:1 20:1 21:1 26:1 27:1 102:1 138:1 177:1 228:1 #
-0.046863830964287707392390558425177 1:1 2:1 3:1 4:1 5:1 6:1 7:1 8:1 9:1 11:1 18:1 19:1 20:1 21:1 26:1 27:1 37:1 38:1 102:1 174:1 358:1 #
-0.046863830964287707392390558425177 1:1 2:1 3:1 4:1 5:1 6:1 7:1 8:1 9:1 11:1 18:1 19:1 20:1 21:1 26:1 27:1 62:1 102:1 138:1 177:1 228:1 #
-0.046863830964287707392390558425177 1:1 2:1 3:1 4:1 5:1 6:1 7:1 8:1 9:1 11:1 18:1 19:1 20:1 21:1 26:1 27:1 102:1 174:1 182:1 892:1 #
-0.046863830964287707392390558425177 1:1 2:1 3:1 4:1 5:1 6:1 7:1 8:1 9:1 11:1 18:1 20:1 21:1 27:1 43:1 44:1 45:1 219:1 949:1 960:1 #
-0.046863830964287707392390558425177 1:1 2:1 3:1 4:1 5:1 6:1 7:1 8:1 9:1 11:1 18:1 20:1 21:1 27:1 43:1 44:1 45:1 219:1 949:1 959:1 #
-0.046863830964287707392390558425177 1:1 4:1 5:1 7:1 8:1 11:1 15:1 18:1 19:1 20:1 21:1 22:1 24:1 26:1 48:1 51:1 62:1 69:1 126:1 153:1 170:1 186:1 774:1 1355:1 1356:1 #
-0.046863830964287707392390558425177 1:1 2:1 3:1 4:1 5:1 6:1 7:1 8:1 9:1 11:1 14:1 17:1 18:1 19:1 20:1 21:1 49:1 55:1 146:1 679:1 #
-0.046863830964287707392390558425177 1:1 2:1 3:1 4:1 5:1 6:1 7:1 8:1 9:1 11:1 18:1 19:1 20:1 21:1 26:1 27:1 102:1 138:1 228:1 237:1 #
-0.046863830964287707392390558425177 1:1 4:1 5:1 6:1 7:1 8:1 9:1 11:1 15:1 18:1 19:1 20:1 21:1 22:1 24:1 26:1 37:1 38:1 49:1 109:1 126:1 561:1 774:1 888:1 1382:1 #
-0.046863830964287707392390558425177 1:1 4:1 5:1 6:1 7:1 8:1 9:1 11:1 16:1 18:1 19:1 20:1 21:1 22:1 26:1 102:1 126:1 209:1 235:1 903:1 905:1 912:1 913:1 #
-0.046863830964287707392390558425177 1:1 4:1 5:1 7:1 8:1 9:1 11:1 18:1 19:1 20:1 21:1 22:1 24:1 26:1 49:1 50:1 69:1 77:1 126:1 173:1 441:1 1157:1 1209:1 #
-0.046863830964287707392390558425177 1:1 4:1 5:1 6:1 7:1 8:1 9:1 11:1 17:1 18:1 19:1 20:1 21:1 22:1 26:1 27:1 38:1 126:1 682:1 887:1 888:1 #
-0.046863830964287707392390558425177 1:1 2:1 3:1 4:1 5:1 6:1 7:1 8:1 9:1 11:1 14:1 18:1 19:1 20:1 21:1 27:1 102:1 116:1 121:1 174:1 #
-0.046863830964287707392390558425177 1:1 2:1 3:1 4:1 5:1 6:1 7:1 8:1 9:1 11:1 18:1 20:1 21:1 27:1 43:1 44:1 45:1 219:1 949:1 960:1 #
-0.046863830964287707392390558425177 1:1 2:1 3:1 4:1 5:1 6:1 7:1 8:1 9:1 11:1 18:1 20:1 21:1 27:1 43:1 44:1 45:1 219:1 949:1 959:1 #
0.046863830964287707392390558425177 1:1 3:1 4:1 5:1 6:1 7:1 8:1 9:1 11:1 18:1 19:1 20:1 21:1 22:1 26:1 27:1 33:1 102:1 244:1 #
0.046863830964287707392390558425177 1:1 3:1 4:1 5:1 6:1 7:1 8:1 9:1 11:1 18:1 19:1 20:1 21:1 22:1 26:1 27:1 102:1 109:1 240:1 784:1 #
0.046863830964287707392390558425177 1:1 3:1 4:1 5:1 6:1 7:1 8:1 9:1 11:1 17:1 18:1 19:1 20:1 21:1 22:1 26:1 27:1 37:1 38:1 62:1 109:1 1567:1 #
0.046863830964287707392390558425177 1:1 3:1 4:1 5:1 6:1 7:1 8:1 9:1 11:1 18:1 19:1 20:1 21:1 22:1 26:1 27:1 102:1 152:1 #
0.046863830964287707392390558425177 1:1 3:1 4:1 5:1 6:1 7:1 8:1 9:1 11:1 18:1 19:1 20:1 21:1 22:1 26:1 27:1 102:1 415:1 #
-0.046863830964287707392390558425177 1:1 4:1 5:1 6:1 7:1 8:1 9:1 11:1 17:1 18:1 19:1 20:1 21:1 22:1 26:1 27:1 30:1 62:1 126:1 174:1 182:1 682:1 887:1 888:1 #
-0.046863830964287707392390558425177 1:1 4:1 5:1 6:1 7:1 8:1 9:1 11:1 17:1 18:1 19:1 20:1 21:1 22:1 26:1 27:1 30:1 62:1 126:1 174:1 682:1 887:1 888:1 #
-0.0011036310418699839253076078193772 1:1 3:1 4:1 5:1 6:1 7:1 8:1 9:1 11:1 14:1 18:1 19:1 20:1 21:1 22:1 27:1 62:1 102:1 213:1 229:1 232:1 #
-0.046863830964287707392390558425177 1:1 2:1 3:1 4:1 5:1 6:1 7:1 8:1 9:1 11:1 18:1 19:1 20:1 21:1 26:1 27:1 62:1 102:1 174:1 892:1 #
-0.046863830964287707392390558425177 1:1 3:1 4:1 5:1 6:1 7:1 8:1 9:1 11:1 16:1 17:1 18:1 19:1 20:1 21:1 22:1 26:1 27:1 108:1 174:1 240:1 784:1 #
0.046863830964287707392390558425177 1:1 2:1 3:1 4:1 5:1 6:1 7:1 8:1 9:1 11:1 18:1 19:1 20:1 21:1 24:1 45:1 49:1 55:1 229:1 326:1 1734:1 #
-0.016570644825455005388903373386711 1:1 3:1 4:1 5:1 6:1 7:1 8:1 9:1 11:1 15:1 18:1 19:1 20:1 21:1 22:1 26:1 62:1 102:1 164:1 930:1 #
0.023917060791157275512208713053042 1:1 2:1 3:1 4:1 5:1 6:1 7:1 8:1 9:1 11:1 18:1 19:1 20:1 21:1 24:1 37:1 45:1 49:1 55:1 324:1 566:1 1378:1 #
-0.026400742682702427188701221894007 1:1 3:1 4:1 5:1 6:1 7:1 8:1 9:1 11:1 14:1 18:1 19:1 20:1 21:1 22:1 24:1 55:1 237:1 326:1 327:1 345:1 1219:1 #
0.020061272105506861712642674433482 1:1 2:1 3:1 4:1 5:1 6:1 7:1 8:1 9:1 11:1 18:1 19:1 20:1 21:1 24:1 49:1 55:1 56:1 83:1 117:1 324:1 566:1 1385:1 #
-0.046863830964287707392390558425177 1:1 2:1 3:1 4:1 5:1 6:1 7:1 9:1 11:1 14:1 18:1 19:1 20:1 21:1 24:1 55:1 108:1 189:1 380:1 603:1 606:1 608:1 1837:1 #
-0.046863830964287707392390558425177 1:1 2:1 3:1 4:1 5:1 6:1 7:1 8:1 9:1 11:1 15:1 18:1 19:1 20:1 21:1 24:1 26:1 77:1 96:1 #
-0.046863830964287707392390558425177 1:1 2:1 3:1 4:1 5:1 7:1 8:1 9:1 11:1 16:1 18:1 19:1 20:1 21:1 24:1 26:1 55:1 69:1 525:1 603:1 1188:1 1194:1 #
-0.046863830964287707392390558425177 1:1 3:1 4:1 5:1 6:1 7:1 8:1 9:1 11:1 14:1 18:1 19:1 20:1 21:1 22:1 49:1 55:1 83:1 102:1 545:1 #
0.046863830964287707392390558425177 1:1 4:1 5:1 6:1 7:1 8:1 9:1 11:1 17:1 18:1 19:1 20:1 21:1 22:1 26:1 27:1 30:1 126:1 174:1 182:1 682:1 887:1 888:1 #
0.046863830964287707392390558425177 1:1 3:1 4:1 5:1 6:1 7:1 8:1 9:1 11:1 18:1 19:1 20:1 21:1 22:1 26:1 27:1 62:1 102:1 144:1 174:1 784:1 #
0.046863830964287707392390558425177 1:1 3:1 4:1 5:1 6:1 7:1 8:1 9:1 11:1 18:1 19:1 20:1 21:1 22:1 26:1 27:1 102:1 144:1 174:1 230:1 992:1 #
0.046863830964287707392390558425177 1:1 3:1 4:1 5:1 6:1 7:1 8:1 9:1 11:1 17:1 18:1 19:1 20:1 21:1 22:1 26:1 27:1 51:1 62:1 339:1 1507:1 #
-0.046863830964287707392390558425177 1:1 2:1 3:1 4:1 5:1 6:1 7:1 8:1 9:1 11:1 18:1 19:1 20:1 21:1 26:1 27:1 37:1 102:1 358:1 594:1 #
-0.046863830964287707392390558425177 1:1 2:1 3:1 4:1 5:1 6:1 7:1 8:1 9:1 11:1 18:1 19:1 20:1 21:1 26:1 27:1 102:1 358:1 594:1 #
0.046863830964287707392390558425177 1:1 2:1 3:1 4:1 5:1 7:1 8:1 9:1 11:1 14:1 15:1 18:1 19:1 20:1 21:1 24:1 69:1 225:1 245:1 326:1 345:1 #
0.046863830964287707392390558425177 1:1 3:1 4:1 5:1 6:1 7:1 8:1 9:1 11:1 17:1 18:1 19:1 20:1 21:1 22:1 26:1 27:1 470:1 #
0.046863830964287707392390558425177 1:1 3:1 4:1 5:1 6:1 7:1 8:1 9:1 11:1 17:1 18:1 19:1 20:1 21:1 22:1 26:1 27:1 130:1 132:1 #
0.046863830964287707392390558425177 1:1 3:1 4:1 5:1 6:1 7:1 8:1 9:1 11:1 18:1 19:1 20:1 21:1 22:1 26:1 27:1 102:1 1577:1 #
-0.046863830964287707392390558425177 1:1 4:1 5:1 6:1 7:1 8:1 9:1 11:1 17:1 18:1 19:1 20:1 21:1 22:1 26:1 49:1 55:1 126:1 177:1 231:1 258:1 322:1 1662:1 #
-0.046863830964287707392390558425177 1:1 4:1 5:1 6:1 7:1 8:1 9:1 11:1 15:1 17:1 18:1 19:1 21:1 22:1 26:1 126:1 128:1 235:1 259:1 427:1 1053:1 #
-0.046863830964287707392390558425177 1:1 3:1 4:1 5:1 6:1 7:1 8:1 9:1 11:1 17:1 18:1 19:1 20:1 21:1 22:1 26:1 27:1 144:1 416:1 #
0.046863830964287707392390558425177 1:1 2:1 3:1 4:1 5:1 7:1 8:1 9:1 11:1 18:1 19:1 20:1 21:1 26:1 55:1 69:1 102:1 177:1 228:1 236:1 #
0.046863830964287707392390558425177 1:1 2:1 3:1 4:1 5:1 6:1 7:1 8:1 9:1 11:1 18:1 19:1 20:1 21:1 26:1 27:1 102:1 138:1 177:1 228:1 #
0.046863830964287707392390558425177 1:1 2:1 3:1 4:1 5:1 6:1 7:1 8:1 9:1 11:1 18:1 19:1 20:1 21:1 26:1 27:1 62:1 102:1 174:1 182:1 892:1 #
0.046863830964287707392390558425177 1:1 2:1 3:1 4:1 5:1 6:1 7:1 8:1 9:1 11:1 18:1 19:1 20:1 21:1 26:1 27:1 138:1 157:1 228:1 #
-0.046863830964287707392390558425177 1:1 2:1 3:1 4:1 5:1 6:1 7:1 8:1 9:1 11:1 14:1 18:1 19:1 20:1 21:1 27:1 102:1 109:1 116:1 121:1 #
0.046863830964287707392390558425177 1:1 4:1 5:1 6:1 7:1 8:1 9:1 11:1 18:1 19:1 20:1 21:1 22:1 24:1 26:1 55:1 56:1 62:1 126:1 174:1 256:1 257:1 258:1 259:1 260:1 #
0.046863830964287707392390558425177 1:1 2:1 3:1 4:1 5:1 6:1 7:1 8:1 9:1 11:1 17:1 18:1 19:1 20:1 21:1 26:1 27:1 57:1 118:1 121:1 124:1 #
-0.046863830964287707392390558425177 1:1 2:1 3:1 4:1 5:1 6:1 7:1 8:1 9:1 11:1 18:1 19:1 20:1 21:1 26:1 27:1 157:1 228:1 237:1 #
-0.046863830964287707392390558425177 1:1 4:1 5:1 7:1 8:1 9:1 11:1 18:1 19:1 20:1 21:1 22:1 24:1 26:1 35:1 55:1 69:1 126:1 975:1 1228:1 1229:1 #
-0.046863830964287707392390558425177 1:1 4:1 5:1 7:1 8:1 9:1 11:1 18:1 19:1 20:1 21:1 22:1 24:1 26:1 35:1 55:1 69:1 126:1 975:1 1085:1 1817:1 #
-0.00056839899116816264279528070346714 1:1 3:1 4:1 5:1 6:1 7:1 8:1 9:1 11:1 14:1 18:1 19:1 20:1 21:1 22:1 27:1 62:1 102:1 213:1 229:1 684:1 #
0.046863830964287707392390558425177 1:1 3:1 4:1 5:1 6:1 7:1 8:1 9:1 11:1 17:1 18:1 19:1 20:1 21:1 22:1 26:1 27:1 37:1 38:1 759:1 #
0.046863830964287707392390558425177 1:1 3:1 4:1 5:1 6:1 7:1 8:1 9:1 11:1 17:1 18:1 19:1 20:1 21:1 22:1 26:1 27:1 37:1 38:1 1573:1 #
-0.0070053754793956285462641631056613 1:1 3:1 4:1 5:1 6:1 7:1 8:1 9:1 11:1 17:1 18:1 19:1 20:1 21:1 22:1 26:1 27:1 37:1 38:1 62:1 240:1 692:1 #
-0.046863830964287707392390558425177 1:1 3:1 4:1 5:1 6:1 7:1 8:1 9:1 11:1 12:1 15:1 16:1 17:1 18:1 19:1 20:1 21:1 22:1 26:1 405:1 870:1 #
-0.009780057419712245847520648567297 1:1 3:1 4:1 5:1 6:1 7:1 8:1 9:1 11:1 17:1 18:1 19:1 20:1 21:1 22:1 26:1 27:1 37:1 38:1 182:1 1484:1 #
-0.0097800574197117740027351828757674 1:1 3:1 4:1 5:1 6:1 7:1 8:1 9:1 11:1 17:1 18:1 19:1 20:1 21:1 22:1 26:1 27:1 37:1 38:1 182:1 1035:1 #
-0.0097800574197129674924866549190483 1:1 3:1 4:1 5:1 6:1 7:1 8:1 9:1 11:1 17:1 18:1 19:1 20:1 21:1 22:1 26:1 27:1 37:1 38:1 182:1 1855:1 #
-0.027005264504949361148433695234417 1:1 3:1 4:1 5:1 6:1 7:1 8:1 9:1 11:1 16:1 18:1 19:1 20:1 21:1 22:1 24:1 26:1 27:1 38:1 79:1 170:1 318:1 1397:1 #
-0.01445308251492612161559492278684 1:1 3:1 4:1 5:1 6:1 7:1 8:1 9:1 11:1 17:1 18:1 19:1 20:1 21:1 22:1 26:1 27:1 37:1 38:1 62:1 1487:1 #
0.021278376905862428358773286163341 1:1 2:1 3:1 4:1 5:1 6:1 7:1 8:1 9:1 11:1 14:1 18:1 19:1 20:1 21:1 27:1 102:1 116:1 121:1 122:1 #
-0.046863830964287707392390558425177 1:1 2:1 3:1 4:1 5:1 6:1 7:1 8:1 9:1 11:1 14:1 16:1 18:1 19:1 20:1 55:1 102:1 125:1 211:1 225:1 228:1 #
-0.046863830964287707392390558425177 1:1 2:1 3:1 4:1 5:1 6:1 7:1 9:1 11:1 14:1 18:1 19:1 20:1 21:1 24:1 174:1 189:1 230:1 237:1 301:1 326:1 1048:1 1217:1 #
-0.046863830964287707392390558425177 1:1 2:1 3:1 4:1 5:1 6:1 7:1 8:1 9:1 11:1 18:1 19:1 20:1 21:1 26:1 27:1 52:1 57:1 102:1 365:1 #
-0.046863830964287707392390558425177 1:1 3:1 4:1 5:1 6:1 7:1 8:1 9:1 11:1 14:1 18:1 19:1 20:1 21:1 22:1 27:1 83:1 102:1 109:1 594:1 596:1 #
-0.046863830964287707392390558425177 1:1 3:1 4:1 5:1 6:1 7:1 8:1 9:1 11:1 14:1 18:1 19:1 20:1 21:1 22:1 49:1 55:1 83:1 102:1 545:1 #
0.046863830964287707392390558425177 1:1 3:1 4:1 5:1 6:1 7:1 8:1 9:1 11:1 15:1 17:1 18:1 19:1 20:1 21:1 22:1 26:1 62:1 164:1 349:1 #
0.046863830964287707392390558425177 1:1 4:1 5:1 6:1 7:1 8:1 9:1 11:1 17:1 18:1 19:1 20:1 21:1 22:1 26:1 27:1 62:1 126:1 177:1 231:1 299:1 322:1 441:1 1782:1 #
0.046863830964287707392390558425177 1:1 4:1 5:1 6:1 7:1 8:1 9:1 11:1 15:1 17:1 18:1 19:1 20:1 21:1 22:1 26:1 62:1 126:1 299:1 345:1 393:1 440:1 448:1 1409:1 #
-0.032853545383762394749282975681126 1:1 3:1 4:1 5:1 6:1 7:1 8:1 9:1 11:1 15:1 17:1 18:1 19:1 20:1 21:1 22:1 26:1 62:1 164:1 941:1 #
-0.0016950250778153264086256513110129 1:1 3:1 4:1 5:1 6:1 7:1 8:1 9:1 11:1 14:1 18:1 19:1 20:1 21:1 22:1 24:1 27:1 37:1 38:1 39:1 182:1 324:1 1333:1 #
-0.046863830964287707392390558425177 1:1 3:1 4:1 5:1 6:1 7:1 8:1 9:1 11:1 17:1 18:1 19:1 20:1 21:1 22:1 26:1 27:1 62:1 144:1 620:1 #
0.046863830964287707392390558425177 1:1 2:1 3:1 4:1 5:1 6:1 7:1 8:1 9:1 11:1 18:1 19:1 20:1 21:1 26:1 27:1 37:1 38:1 102:1 358:1 #
-0.046863830964287707392390558425177 1:1 4:1 5:1 6:1 7:1 8:1 9:1 11:1 18:1 19:1 20:1 21:1 22:1 26:1 27:1 62:1 102:1 126:1 177:1 213:1 231:1 234:1 299:1 448:1 509:1 686:1 #
-0.046863830964287707392390558425177 1:1 2:1 3:1 4:1 5:1 7:1 8:1 9:1 11:1 15:1 18:1 19:1 20:1 21:1 24:1 26:1 48:1 51:1 62:1 69:1 186:1 1360:1 #
0.011278127287724152433279201090954 1:1 2:1 3:1 4:1 5:1 6:1 7:1 9:1 11:1 18:1 19:1 20:1 21:1 24:1 45:1 55:1 189:1 606:1 607:1 608:1 1600:1 #
0.046863830964287707392390558425177 1:1 4:1 5:1 7:1 8:1 9:1 11:1 18:1 19:1 20:1 21:1 22:1 24:1 26:1 35:1 55:1 69:1 126:1 170:1 263:1 787:1 981:1 #
0.0061870420424760957933685290299763 1:1 2:1 3:1 4:1 5:1 6:1 7:1 8:1 9:1 11:1 14:1 18:1 19:1 20:1 21:1 27:1 211:1 228:1 237:1 955:1 #
0.046863830964287707392390558425177 1:1 3:1 4:1 5:1 6:1 7:1 8:1 9:1 11:1 18:1 19:1 20:1 21:1 22:1 26:1 27:1 62:1 102:1 144:1 851:1 #
0.046863830964287707392390558425177 1:1 3:1 4:1 5:1 6:1 7:1 8:1 9:1 11:1 15:1 17:1 18:1 19:1 20:1 21:1 22:1 45:1 123:1 259:1 446:1 #
-0.046863830964287707392390558425177 1:1 3:1 4:1 5:1 6:1 7:1 8:1 9:1 11:1 13:1 18:1 19:1 20:1 21:1 22:1 23:1 24:1 27:1 45:1 66:1 #
-0.046863830964287707392390558425177 1:1 3:1 4:1 5:1 6:1 7:1 8:1 9:1 11:1 17:1 18:1 19:1 20:1 21:1 22:1 26:1 50:1 164:1 941:1 #
0.046863830964287707392390558425177 1:1 2:1 3:1 4:1 5:1 6:1 7:1 8:1 9:1 11:1 17:1 18:1 19:1 20:1 21:1 26:1 48:1 50:1 52:1 766:1 #
0.046863830964287707392390558425177 1:1 2:1 3:1 4:1 5:1 6:1 7:1 8:1 9:1 11:1 15:1 18:1 19:1 20:1 21:1 24:1 26:1 34:1 35:1 62:1 #
0.046863830964287707392390558425177 1:1 2:1 3:1 4:1 5:1 6:1 7:1 8:1 9:1 11:1 17:1 18:1 19:1 20:1 21:1 26:1 27:1 29:1 30:1 403:1 #
0.046863830964287707392390558425177 1:1 2:1 3:1 4:1 5:1 6:1 7:1 8:1 11:1 18:1 19:1 20:1 21:1 24:1 26:1 27:1 62:1 153:1 255:1 528:1 #
-0.046863830964287707392390558425177 1:1 2:1 3:1 4:1 5:1 6:1 7:1 8:1 9:1 18:1 19:1 20:1 21:1 26:1 27:1 29:1 30:1 62:1 102:1 137:1 174:1 358:1 #
-0.046863830964287707392390558425177 1:1 2:1 3:1 4:1 5:1 6:1 7:1 8:1 9:1 11:1 18:1 19:1 20:1 21:1 26:1 27:1 62:1 102:1 174:1 358:1 594:1 #
-0.046863830964287707392390558425177 1:1 2:1 3:1 4:1 5:1 6:1 7:1 8:1 9:1 11:1 18:1 19:1 20:1 21:1 26:1 27:1 102:1 174:1 358:1 594:1 #
-0.046863830964287707392390558425177 1:1 2:1 3:1 4:1 5:1 6:1 7:1 8:1 9:1 11:1 15:1 18:1 19:1 21:1 24:1 26:1 259:1 427:1 886:1 #
0.046863830964287707392390558425177 1:1 4:1 5:1 7:1 8:1 9:1 11:1 14:1 18:1 19:1 20:1 21:1 22:1 24:1 44:1 48:1 55:1 62:1 69:1 126:1 441:1 760:1 761:1 #
0.046863830964287707392390558425177 1:1 4:1 5:1 6:1 7:1 8:1 9:1 11:1 13:1 14:1 18:1 19:1 20:1 21:1 22:1 24:1 27:1 30:1 62:1 126:1 174:1 182:1 900:1 1004:1 1005:1 #
0.046863830964287707392390558425177 1:1 3:1 4:1 5:1 6:1 7:1 8:1 9:1 11:1 16:1 18:1 19:1 20:1 21:1 22:1 24:1 27:1 43:1 44:1 671:1 672:1 #
-0.046863830964287707392390558425177 1:1 3:1 4:1 5:1 6:1 7:1 8:1 9:1 11:1 19:1 20:1 21:1 22:1 27:1 43:1 44:1 45:1 53:1 84:1 816:1 818:1 #
-0.046863830964287707392390558425177 1:1 3:1 4:1 5:1 6:1 7:1 8:1 9:1 11:1 14:1 18:1 19:1 20:1 21:1 22:1 24:1 27:1 62:1 326:1 445:1 1052:1 #
-0.046863830964287707392390558425177 1:1 3:1 4:1 5:1 6:1 7:1 8:1 9:1 11:1 14:1 18:1 19:1 20:1 21:1 22:1 24:1 27:1 29:1 66:1 1468:1 #
0.046863830964287707392390558425177 1:1 2:1 3:1 4:1 5:1 6:1 7:1 8:1 9:1 11:1 18:1 19:1 20:1 21:1 26:1 27:1 37:1 38:1 102:1 358:1 #
0.046863830964287707392390558425177 1:1 2:1 3:1 4:1 5:1 6:1 7:1 8:1 9:1 11:1 18:1 19:1 20:1 21:1 26:1 27:1 102:1 358:1 #
0.046863830964287707392390558425177 1:1 2:1 3:1 4:1 5:1 6:1 7:1 8:1 9:1 11:1 18:1 19:1 20:1 21:1 26:1 27:1 102:1 144:1 145:1 174:1 230:1 380:1 #
-0.046863830964287707392390558425177 1:1 3:1 4:1 5:1 6:1 7:1 8:1 9:1 11:1 17:1 18:1 19:1 20:1 21:1 22:1 26:1 27:1 144:1 928:1 #
-0.046863830964287707392390558425177 1:1 3:1 4:1 5:1 6:1 7:1 8:1 9:1 11:1 17:1 18:1 19:1 20:1 21:1 22:1 26:1 27:1 144:1 934:1 #
0.028090014800255559690445039677797 1:1 2:1 3:1 4:1 5:1 6:1 7:1 8:1 9:1 11:1 18:1 19:1 20:1 21:1 26:1 27:1 37:1 38:1 102:1 109:1 133:1 1765:1 #
-0.009191890018819207780476077118692 1:1 3:1 4:1 5:1 6:1 7:1 8:1 9:1 11:1 18:1 19:1 20:1 21:1 22:1 26:1 27:1 32:1 33:1 102:1 230:1 371:1 #
0.046863830964287707392390558425177 1:1 3:1 4:1 5:1 6:1 7:1 8:1 9:1 11:1 14:1 18:1 19:1 20:1 21:1 22:1 27:1 62:1 102:1 146:1 174:1 851:1 #
0.046863830964287707392390558425177 1:1 2:1 3:1 4:1 5:1 6:1 7:1 8:1 9:1 11:1 18:1 19:1 20:1 21:1 26:1 27:1 102:1 174:1 240:1 380:1 391:1 #
0.046863830964287707392390558425177 1:1 3:1 4:1 5:1 6:1 7:1 8:1 9:1 11:1 18:1 19:1 20:1 21:1 22:1 27:1 36:1 45:1 102:1 109:1 146:1 851:1 #
0.046863830964287707392390558425177 1:1 3:1 4:1 5:1 6:1 7:1 8:1 9:1 11:1 15:1 16:1 17:1 18:1 19:1 20:1 21:1 22:1 45:1 123:1 259:1 446:1 #
-0.046863830964287707392390558425177 1:1 2:1 3:1 4:1 5:1 6:1 7:1 8:1 9:1 11:1 14:1 18:1 20:1 21:1 49:1 55:1 102:1 131:1 219:1 446:1 #
-0.046863830964287707392390558425177 1:1 2:1 3:1 4:1 5:1 6:1 7:1 8:1 9:1 11:1 15:1 18:1 19:1 20:1 26:1 62:1 102:1 125:1 225:1 328:1 666:1 808:1 #
0.046863830964287707392390558425177 1:1 4:1 5:1 6:1 7:1 8:1 9:1 11:1 17:1 18:1 19:1 20:1 21:1 22:1 26:1 27:1 126:1 231:1 258:1 322:1 1660:1 #
0.046863830964287707392390558425177 1:1 4:1 5:1 6:1 7:1 8:1 9:1 11:1 17:1 18:1 19:1 20:1 21:1 22:1 26:1 27:1 62:1 126:1 128:1 132:1 235:1 1053:1 #
0.046863830964287707392390558425177 1:1 4:1 5:1 6:1 7:1 8:1 9:1 11:1 17:1 18:1 19:1 20:1 21:1 22:1 26:1 27:1 28:1 126:1 170:1 258:1 380:1 787:1 1111:1 #
0.046863830964287707392390558425177 1:1 4:1 5:1 6:1 7:1 8:1 9:1 11:1 16:1 17:1 18:1 19:1 20:1 21:1 22:1 26:1 27:1 126:1 240:1 288:1 289:1 290:1 #
0.046863830964287707392390558425177 1:1 4:1 5:1 6:1 7:1 8:1 9:1 11:1 18:1 19:1 20:1 21:1 22:1 26:1 27:1 126:1 226:1 322:1 323:1 877:1 1797:1 #
-0.046863830964287707392390558425177 1:1 4:1 5:1 6:1 7:1 8:1 9:1 11:1 18:1 19:1 20:1 21:1 22:1 26:1 27:1 102:1 126:1 177:1 233:1 234:1 235:1 #
-0.046863830964287707392390558425177 1:1 4:1 5:1 6:1 7:1 8:1 9:1 11:1 15:1 18:1 19:1 21:1 22:1 24:1 26:1 62:1 126:1 128:1 235:1 259:1 427:1 1053:1 #
-0.046863830964287707392390558425177 1:1 4:1 5:1 7:1 8:1 9:1 11:1 15:1 17:1 18:1 19:1 20:1 21:1 22:1 26:1 69:1 126:1 225:1 234:1 236:1 508:1 509:1 #
0.046863830964287707392390558425177 1:1 2:1 3:1 4:1 5:1 6:1 7:1 8:1 9:1 11:1 18:1 19:1 20:1 21:1 26:1 55:1 102:1 179:1 209:1 #
0.046863830964287707392390558425177 1:1 2:1 3:1 4:1 5:1 6:1 7:1 8:1 9:1 11:1 17:1 18:1 19:1 20:1 21:1 26:1 30:1 55:1 405:1 654:1 #
0.046863830964287707392390558425177 1:1 2:1 3:1 4:1 5:1 6:1 7:1 8:1 9:1 11:1 18:1 19:1 20:1 21:1 26:1 27:1 37:1 38:1 102:1 358:1 #
0.046863830964287707392390558425177 1:1 2:1 3:1 4:1 5:1 6:1 7:1 8:1 9:1 18:1 19:1 20:1 21:1 26:1 27:1 37:1 38:1 102:1 109:1 137:1 746:1 #
-0.046863830964287707392390558425177 1:1 2:1 3:1 4:1 5:1 6:1 7:1 8:1 9:1 11:1 16:1 19:1 20:1 21:1 26:1 53:1 55:1 102:1 209:1 610:1 901:1 #
-0.046863830964287707392390558425177 1:1 2:1 3:1 4:1 5:1 6:1 7:1 8:1 9:1 11:1 18:1 20:1 21:1 27:1 43:1 44:1 45:1 219:1 380:1 949:1 960:1 #
-0.0054514245726949815684658773307092 1:1 3:1 4:1 5:1 6:1 7:1 8:1 9:1 11:1 16:1 18:1 19:1 20:1 21:1 22:1 24:1 26:1 27:1 32:1 79:1 170:1 1022:1 #
-0.046863830964287707392390558425177 1:1 2:1 3:1 4:1 5:1 6:1 7:1 8:1 9:1 11:1 18:1 20:1 21:1 27:1 43:1 44:1 45:1 219:1 380:1 949:1 959:1 #
0.046863830964287707392390558425177 1:1 2:1 3:1 4:1 5:1 7:1 8:1 9:1 15:1 18:1 19:1 20:1 21:1 26:1 62:1 69:1 102:1 136:1 137:1 225:1 236:1 #
0.046863830964287707392390558425177 1:1 4:1 5:1 6:1 7:1 8:1 11:1 18:1 19:1 20:1 21:1 22:1 24:1 26:1 27:1 126:1 153:1 226:1 316:1 319:1 1016:1 1046:1 #
0.0096324036982833056291797291237344 1:1 2:1 3:1 4:1 5:1 6:1 7:1 8:1 9:1 11:1 14:1 15:1 18:1 19:1 20:1 21:1 24:1 62:1 605:1 606:1 608:1 903:1 #
-0.046863830964287707392390558425177 1:1 2:1 3:1 4:1 5:1 6:1 7:1 8:1 9:1 11:1 18:1 19:1 20:1 21:1 24:1 26:1 55:1 57:1 186:1 616:1 #
-0.046863830964287707392390558425177 1:1 3:1 4:1 5:1 6:1 7:1 8:1 9:1 11:1 17:1 18:1 19:1 20:1 21:1 22:1 26:1 27:1 62:1 123:1 255:1 #
-0.0057314152942762319753455813042819 1:1 3:1 4:1 5:1 6:1 7:1 8:1 9:1 11:1 17:1 18:1 19:1 20:1 21:1 22:1 26:1 27:1 30:1 1770:1 #
-0.046863830964287707392390558425177 1:1 3:1 4:1 5:1 6:1 7:1 8:1 9:1 11:1 13:1 14:1 18:1 19:1 20:1 21:1 22:1 27:1 102:1 182:1 777:1 #
0.046863830964287707392390558425177 1:1 3:1 4:1 5:1 6:1 7:1 8:1 9:1 11:1 18:1 19:1 20:1 21:1 22:1 24:1 27:1 43:1 44:1 45:1 170:1 311:1 #
0.046863830964287707392390558425177 1:1 3:1 4:1 5:1 6:1 7:1 8:1 9:1 11:1 16:1 18:1 19:1 20:1 21:1 22:1 24:1 27:1 43:1 44:1 45:1 1166:1 #
0.046863830964287707392390558425177 1:1 3:1 4:1 5:1 6:1 7:1 8:1 9:1 11:1 18:1 19:1 20:1 21:1 22:1 24:1 27:1 43:1 44:1 45:1 816:1 951:1 #
0.046863830964287707392390558425177 1:1 3:1 4:1 5:1 6:1 7:1 8:1 9:1 11:1 17:1 18:1 19:1 20:1 21:1 22:1 27:1 36:1 43:1 44:1 337:1 386:1 465:1 #
0.046863830964287707392390558425177 1:1 3:1 4:1 5:1 6:1 7:1 8:1 9:1 11:1 17:1 18:1 19:1 20:1 21:1 22:1 27:1 43:1 44:1 45:1 62:1 695:1 #
-0.0049090185420200835655912818822344 1:1 2:1 3:1 4:1 5:1 6:1 7:1 8:1 9:1 11:1 16:1 17:1 19:1 20:1 26:1 27:1 53:1 125:1 665:1 #
0.046863830964287707392390558425177 1:1 2:1 3:1 4:1 5:1 6:1 7:1 8:1 9:1 11:1 18:1 19:1 20:1 21:1 26:1 55:1 62:1 102:1 131:1 259:1 #
0.046863830964287707392390558425177 1:1 2:1 3:1 4:1 5:1 6:1 7:1 8:1 9:1 11:1 17:1 18:1 19:1 20:1 21:1 26:1 35:1 49:1 50:1 567:1 #
0.046863830964287707392390558425177 1:1 2:1 3:1 4:1 5:1 6:1 7:1 8:1 9:1 11:1 17:1 18:1 19:1 20:1 21:1 26:1 48:1 55:1 62:1 174:1 383:1 #
0.046863830964287707392390558425177 1:1 2:1 3:1 4:1 5:1 6:1 7:1 8:1 9:1 11:1 18:1 19:1 20:1 21:1 26:1 27:1 56:1 79:1 102:1 270:1 1509:1 #
-0.046863830964287707392390558425177 1:1 2:1 3:1 4:1 5:1 7:1 8:1 9:1 11:1 17:1 18:1 19:1 20:1 21:1 26:1 55:1 69:1 77:1 188:1 1509:1 #
-0.046863830964287707392390558425177 1:1 2:1 3:1 4:1 5:1 6:1 7:1 8:1 9:1 11:1 17:1 18:1 19:1 20:1 26:1 27:1 79:1 125:1 245:1 #
-0.046863830964287707392390558425177 1:1 2:1 3:1 4:1 5:1 6:1 7:1 8:1 9:1 11:1 15:1 18:1 19:1 21:1 24:1 26:1 259:1 427:1 886:1 #
-0.046863830964287707392390558425177 1:1 2:1 3:1 4:1 5:1 6:1 7:1 8:1 9:1 11:1 18:1 19:1 20:1 24:1 26:1 27:1 86:1 91:1 125:1 #
0.046863830964287707392390558425177 1:1 4:1 5:1 6:1 7:1 8:1 9:1 11:1 13:1 18:1 19:1 20:1 21:1 22:1 27:1 45:1 66:1 84:1 109:1 126:1 141:1 681:1 682:1 #
0.046863830964287707392390558425177 1:1 3:1 4:1 5:1 6:1 7:1 8:1 9:1 11:1 17:1 18:1 19:1 20:1 21:1 22:1 27:1 92:1 108:1 117:1 146:1 622:1 623:1 #
0.046863830964287707392390558425177 1:1 2:1 3:1 4:1 5:1 6:1 7:1 8:1 9:1 11:1 18:1 19:1 20:1 21:1 24:1 26:1 27:1 121:1 255:1 #
0.046863830964287707392390558425177 1:1 2:1 3:1 4:1 5:1 6:1 7:1 8:1 9:1 11:1 12:1 13:1 18:1 19:1 20:1 21:1 66:1 102:1 301:1 358:1 405:1 465:1 #
-0.0012037557266262322031025178148411 1:1 3:1 4:1 5:1 6:1 7:1 8:1 9:1 11:1 12:1 15:1 17:1 18:1 19:1 20:1 21:1 22:1 26:1 182:1 405:1 1873:1 #
0.046863830964287707392390558425177 1:1 2:1 3:1 4:1 5:1 6:1 7:1 8:1 9:1 11:1 18:1 19:1 20:1 21:1 26:1 27:1 37:1 38:1 102:1 358:1 #
-0.041201301673516044221656784429797 1:1 3:1 4:1 5:1 6:1 7:1 8:1 9:1 11:1 18:1 19:1 20:1 21:1 22:1 26:1 27:1 38:1 62:1 102:1 404:1 #
-0.0055261686523298547690785653685452 1:1 3:1 4:1 5:1 6:1 7:1 8:1 9:1 11:1 18:1 19:1 20:1 21:1 22:1 26:1 27:1 37:1 38:1 62:1 102:1 170:1 172:1 #
-0.026180291119813736688826111276285 1:1 3:1 4:1 5:1 6:1 7:1 8:1 9:1 11:1 18:1 19:1 20:1 21:1 22:1 26:1 27:1 62:1 102:1 144:1 936:1 #
-0.046863830964287707392390558425177 1:1 3:1 4:1 5:1 6:1 7:1 8:1 9:1 11:1 18:1 19:1 20:1 21:1 22:1 26:1 27:1 102:1 144:1 488:1 #
-0.029268636798550629052328986290377 1:1 3:1 4:1 5:1 6:1 7:1 8:1 9:1 11:1 18:1 19:1 20:1 21:1 22:1 26:1 27:1 102:1 144:1 929:1 #
0.046524738938014661981945607749367 1:1 2:1 3:1 4:1 5:1 6:1 7:1 8:1 9:1 11:1 18:1 19:1 20:1 21:1 26:1 55:1 84:1 164:1 394:1 #
0.046863830964287707392390558425177 1:1 2:1 3:1 4:1 5:1 6:1 7:1 8:1 9:1 11:1 15:1 18:1 19:1 20:1 21:1 24:1 26:1 48:1 575:1 #
0.046863830964287707392390558425177 1:1 2:1 3:1 4:1 5:1 7:1 8:1 9:1 11:1 14:1 16:1 18:1 19:1 20:1 21:1 55:1 69:1 102:1 228:1 229:1 236:1 #
-0.014486858371158118155563876428005 1:1 3:1 4:1 5:1 6:1 7:1 8:1 9:1 11:1 17:1 18:1 19:1 20:1 21:1 22:1 26:1 27:1 37:1 38:1 62:1 980:1 #
0.046863830964287707392390558425177 1:1 2:1 3:1 4:1 5:1 6:1 7:1 8:1 9:1 11:1 18:1 19:1 20:1 21:1 24:1 26:1 27:1 79:1 144:1 245:1 #
-0.046863830964287707392390558425177 1:1 2:1 3:1 4:1 5:1 6:1 7:1 8:1 9:1 11:1 18:1 19:1 20:1 24:1 26:1 27:1 86:1 91:1 125:1 #
-0.046863830964287707392390558425177 1:1 4:1 5:1 7:1 8:1 9:1 11:1 18:1 19:1 20:1 21:1 22:1 24:1 26:1 55:1 56:1 62:1 69:1 77:1 126:1 318:1 774:1 1156:1 1157:1 #
-0.043448350182150145826209808319618 1:1 3:1 4:1 5:1 6:1 7:1 8:1 9:1 11:1 16:1 17:1 18:1 19:1 20:1 21:1 22:1 26:1 27:1 132:1 231:1 443:1 448:1 #
0.046863830964287707392390558425177 1:1 2:1 3:1 4:1 5:1 6:1 7:1 8:1 9:1 11:1 18:1 19:1 20:1 21:1 26:1 27:1 62:1 102:1 144:1 174:1 639:1 #
-0.046863830964287707392390558425177 1:1 2:1 3:1 4:1 5:1 6:1 7:1 8:1 9:1 18:1 19:1 20:1 26:1 27:1 37:1 38:1 62:1 102:1 125:1 137:1 174:1 358:1 #
-0.046863830964287707392390558425177 1:1 3:1 4:1 5:1 6:1 7:1 8:1 9:1 11:1 16:1 18:1 19:1 20:1 21:1 22:1 26:1 27:1 102:1 174:1 240:1 297:1 #
-0.046863830964287707392390558425177 1:1 2:1 3:1 4:1 5:1 6:1 7:1 8:1 9:1 18:1 19:1 20:1 26:1 27:1 62:1 102:1 125:1 137:1 174:1 177:1 213:1 504:1 #
-0.046863830964287707392390558425177 1:1 3:1 4:1 5:1 6:1 7:1 8:1 9:1 11:1 18:1 19:1 20:1 21:1 22:1 26:1 50:1 102:1 164:1 930:1 #
-0.046863830964287707392390558425177 1:1 3:1 4:1 5:1 6:1 7:1 8:1 9:1 11:1 15:1 17:1 18:1 19:1 20:1 21:1 22:1 26:1 164:1 940:1 #
0.046863830964287707392390558425177 1:1 4:1 5:1 6:1 7:1 8:1 9:1 11:1 17:1 18:1 19:1 20:1 21:1 22:1 26:1 55:1 126:1 164:1 289:1 392:1 393:1 #
0.046863830964287707392390558425177 1:1 2:1 3:1 4:1 5:1 6:1 7:1 8:1 9:1 11:1 17:1 18:1 19:1 20:1 21:1 26:1 27:1 86:1 91:1 #
-0.046863830964287707392390558425177 1:1 3:1 4:1 5:1 6:1 7:1 8:1 9:1 11:1 17:1 18:1 19:1 20:1 21:1 22:1 26:1 55:1 164:1 938:1 #
-0.046863830964287707392390558425177 1:1 3:1 4:1 5:1 6:1 7:1 8:1 9:1 11:1 17:1 18:1 19:1 20:1 21:1 22:1 26:1 55:1 164:1 942:1 #
-0.027788695351758763152361098036636 1:1 3:1 4:1 5:1 6:1 7:1 8:1 9:1 11:1 16:1 17:1 18:1 19:1 20:1 21:1 22:1 26:1 27:1 28:1 240:1 791:1 #
-0.046863830964287707392390558425177 1:1 3:1 4:1 5:1 6:1 7:1 8:1 9:1 11:1 14:1 17:1 18:1 19:1 20:1 21:1 22:1 27:1 28:1 56:1 109:1 566:1 659:1 #
0.046863830964287707392390558425177 1:1 3:1 4:1 5:1 6:1 7:1 8:1 9:1 11:1 17:1 18:1 19:1 20:1 21:1 22:1 27:1 43:1 44:1 45:1 62:1 185:1 #
